3436 100
. -0.088210 -0.315972 0.114752 0.063146 0.012026 0.040800 -0.056509 -0.217997 -0.190613 0.323633 0.016958 0.040822 -0.154713 -0.275043 0.136986 0.407813 0.296214 -0.058343 0.409905 0.133958 -0.377359 0.136793 0.297463 0.021394 0.024309 -0.250386 0.069429 0.188612 0.063250 0.147839 0.069769 0.192391 -0.111906 -0.073044 -0.093407 -0.119613 0.088088 0.019003 0.069950 -0.159786 -0.167733 0.340873 -0.051689 -0.293324 0.096297 0.276556 -0.040728 -0.055030 -0.150653 -0.023167 -0.341873 -0.238226 0.098070 -0.107399 0.229765 -0.038405 0.229143 -0.105434 -0.082523 -0.120981 -0.112163 0.052430 0.095872 -0.129477 -0.087999 -0.014170 0.269383 -0.219826 0.320909 0.308723 0.041833 -0.063056 0.138168 0.204099 0.103450 0.021103 -0.093103 -0.054279 -0.135764 -0.204505 -0.050695 0.216789 -0.017352 -0.178241 -0.033582 0.385443 -0.020798 -0.141320 0.149758 0.018919 -0.056339 -0.095401 -0.157652 0.234510 0.140821 -0.045684 -0.223053 0.221216 -0.132138 0.031536 
, -0.005127 -0.276374 0.180755 0.037587 0.074578 0.195104 0.024451 -0.161426 -0.135293 0.324448 0.402123 0.101706 -0.349055 -0.124537 0.161893 0.198846 0.418402 0.224623 0.320122 0.263147 -0.016690 0.198310 0.252366 -0.176667 -0.078675 -0.008265 0.047760 -0.040893 -0.101858 0.174291 0.065309 0.106106 -0.134940 -0.099714 0.116143 0.054245 0.134239 0.195342 0.233470 -0.087694 -0.238712 0.276038 -0.166198 -0.411922 0.026181 0.243815 0.074019 0.176768 0.119318 -0.122282 0.039223 -0.266763 -0.018916 -0.250736 -0.037391 -0.217848 0.358654 -0.153513 0.022046 -0.185619 0.035551 -0.159352 -0.044086 0.069318 0.018031 0.043747 0.249453 -0.148097 0.154094 -0.036541 0.115619 -0.065417 0.222204 -0.082335 0.063686 -0.026660 -0.207104 -0.029905 -0.102778 -0.098955 -0.073229 0.223760 0.020159 -0.090883 0.194861 0.420513 -0.156520 -0.143078 0.154142 -0.084748 0.053635 -0.019995 -0.091844 0.006302 0.317305 0.025247 -0.146429 0.306079 -0.063685 0.320080 
a -0.171884 -0.021164 0.294933 0.018957 -0.039051 0.042408 -0.232662 -0.295866 -0.231653 0.415485 0.073762 0.131186 -0.196348 -0.166980 -0.039610 0.220550 0.304328 0.070425 0.343355 0.037408 -0.162815 0.226082 0.350440 -0.112770 -0.076793 -0.024632 0.002783 0.052183 -0.127775 0.178042 0.083959 0.294411 -0.212783 -0.020342 0.132115 0.187527 0.004490 -0.005594 0.128887 -0.251780 -0.110441 0.264990 -0.242546 -0.348142 0.076090 0.230617 0.016345 -0.046195 0.143689 -0.120019 -0.131067 -0.300140 0.078835 -0.300089 0.034419 -0.284329 0.237972 -0.077399 0.033576 -0.181360 0.100161 0.048618 -0.019760 0.040979 -0.015583 -0.014321 0.105775 -0.187124 0.207416 0.289950 0.016992 -0.136914 0.038335 0.025290 0.082767 0.092191 -0.114770 0.187402 -0.055511 -0.280628 -0.115482 0.165203 -0.036023 0.055126 0.305260 0.382326 -0.098131 -0.090142 0.224978 0.069884 0.145299 -0.137714 -0.322679 -0.060405 0.343588 0.093490 -0.007321 0.174649 -0.242817 0.034411 
v -0.238549 -0.089801 0.292346 -0.078287 0.138215 0.365658 0.076547 -0.267941 -0.461561 0.401103 0.321845 0.315737 -0.074248 -0.329436 0.078418 0.172748 -0.034826 0.567917 0.194471 0.309004 -0.109492 0.199576 0.229096 0.126356 0.083094 -0.161422 -0.122963 0.175672 0.090206 -0.037017 0.002188 -0.043492 -0.116008 0.042614 -0.399806 0.113743 -0.106845 0.035592 0.088596 0.015580 -0.136226 0.327311 -0.077692 -0.251331 0.072742 -0.126859 0.070237 -0.001228 -0.145766 -0.185560 -0.002570 -0.304107 0.258187 -0.091170 -0.171641 0.235608 -0.131744 0.123205 0.174540 -0.117772 0.107205 0.271913 0.333305 -0.140213 -0.043493 0.268191 0.357211 -0.084328 -0.025432 0.579499 0.079548 -0.245262 0.392105 0.053456 -0.227952 0.094225 -0.604085 0.227064 0.107779 -0.012307 -0.332183 -0.004076 -0.050550 -0.227964 0.076781 0.520062 -0.096533 -0.166090 0.157878 -0.040883 -0.127104 -0.351713 -0.212200 -0.159229 -0.084085 0.069768 -0.224155 0.047215 -0.118279 -0.104274 
- -0.141018 0.219442 0.064433 -0.168385 0.440845 0.318274 -0.051274 0.152616 0.128529 0.113938 0.451132 0.213475 -0.019924 -0.465478 0.233459 0.276422 0.486016 0.315492 -0.098176 -0.023964 0.004977 0.145026 0.568761 -0.115629 -0.044142 0.096623 -0.101905 0.241422 -0.375208 0.368721 -0.042719 0.028783 -0.044030 -0.168161 -0.270334 0.216953 -0.184807 0.044413 0.266953 0.059030 -0.126948 0.462080 -0.197934 0.210817 0.265770 0.199004 0.253388 0.222512 -0.197023 0.034579 -0.118634 -0.478895 0.028875 -0.073537 0.278449 -0.137049 0.508309 -0.379375 -0.411555 0.201657 -0.228054 -0.278481 -0.151567 0.329557 0.048806 0.264067 0.324124 -0.199360 0.364642 0.214648 0.149209 -0.279625 0.269806 -0.054786 -0.089306 -0.156100 -0.055505 0.075565 -0.315861 -0.583607 0.304272 0.126139 0.182511 -0.236146 -0.156539 0.457673 -0.265880 -0.456752 0.133246 0.074042 -0.253925 0.145897 -0.142039 -0.010378 0.032586 -0.011331 -0.303991 0.000364 -0.169295 -0.371429 
na -0.104790 -0.448098 0.416248 0.219368 0.396364 -0.024317 -0.156180 -0.484750 -0.197707 0.297500 0.111766 0.275271 0.342570 -0.298585 -0.069375 0.094760 0.637903 0.291459 0.114747 -0.093797 -0.025761 -0.048416 0.342915 -0.159977 0.231978 -0.235478 -0.119131 0.258934 0.155729 -0.022058 0.161679 0.011208 -0.331427 0.037545 -0.115699 0.182694 0.008434 0.107215 0.361038 -0.099476 -0.202465 0.550675 -0.032923 -0.317155 -0.000261 0.027558 -0.036060 -0.045044 0.090387 0.074249 -0.074659 -0.097947 0.024904 -0.089053 -0.055142 -0.209312 0.032115 0.057375 0.230310 -0.125409 0.089093 0.170600 -0.007875 -0.197269 -0.040215 0.122091 0.443033 -0.172062 0.096758 0.200075 0.078196 -0.078144 0.094098 0.034149 -0.046137 0.078664 -0.195464 0.473891 -0.180826 0.048535 0.084160 0.072645 0.382051 0.005365 -0.159530 0.661385 0.110623 -0.139208 0.425783 -0.112069 -0.085764 -0.115063 -0.457413 -0.516472 -0.187533 0.147766 0.171149 0.122674 -0.214280 -0.203413 
: 0.352731 -0.485501 -0.090835 -0.067707 -0.108031 0.319777 -0.128965 -0.380929 -0.282471 0.263647 0.571947 -0.130278 -0.025087 -0.204511 0.227803 0.378943 0.286285 0.529008 0.240729 -0.108529 -0.192418 0.191980 0.224043 -0.035150 -0.278749 0.028918 -0.153458 0.004731 -0.144294 0.196046 -0.426589 -0.064730 -0.272333 0.068383 -0.328364 0.143588 -0.111004 0.046351 0.217876 -0.060687 -0.543962 0.450613 -0.374765 0.093311 0.494171 0.329062 0.353048 0.216869 -0.395383 0.207043 -0.160749 -0.162012 -0.055843 -0.204010 0.050966 -0.263869 0.267353 -0.462660 -0.030304 -0.058614 -0.102606 -0.305575 -0.141841 0.280136 -0.040094 0.148989 0.334325 -0.147477 0.291301 -0.050377 -0.265875 -0.052167 0.168363 -0.425350 -0.728845 0.187770 -0.013434 -0.281158 0.328059 -0.598129 -0.211474 -0.054984 0.202545 -0.192734 -0.163759 0.348771 0.045742 0.183206 0.292140 -0.098785 -0.079841 -0.140501 -0.229186 0.240973 0.035212 -0.156636 -0.095982 -0.055161 -0.088454 -0.059054 
se -0.166493 -0.251673 0.234197 0.091123 0.226643 0.437375 0.006342 -0.215572 0.017727 0.573995 0.326174 -0.011226 -0.308681 -0.294663 -0.211019 0.147682 0.188729 0.037338 0.423919 0.122601 -0.081213 0.321143 0.468665 -0.159670 -0.344611 -0.030240 0.122713 -0.177369 0.363756 0.136361 0.001337 0.074651 -0.519387 -0.132675 0.089748 0.304035 -0.148225 -0.181398 -0.219210 -0.247260 0.110538 0.744955 -0.162610 -0.412474 0.412830 -0.088467 0.091262 0.009475 0.295528 0.032819 0.034736 0.092953 0.149157 0.107436 -0.264635 -0.058124 -0.123254 -0.210446 0.043480 -0.065538 0.085395 -0.018876 0.061600 -0.443619 -0.028098 0.024477 0.353378 -0.107149 0.010896 0.268944 -0.049739 -0.196586 0.247929 -0.051103 0.108770 -0.219510 -0.027034 0.176427 0.085724 0.089265 0.011450 0.091400 -0.041434 -0.005277 0.170785 0.240776 -0.064149 0.157054 0.022962 -0.174501 -0.160010 -0.170426 -0.046825 -0.253659 0.270417 0.201483 0.062322 0.704012 -0.001311 0.018849 
) 0.212642 -0.406832 -0.005891 -0.162093 0.041691 0.309211 -0.029419 -0.074036 -0.066134 0.337971 0.037219 0.102184 -0.049393 -0.212519 0.206268 0.258650 0.297619 -0.049300 0.187886 0.206751 0.051755 0.241531 0.117446 -0.171744 0.081865 0.149826 -0.277099 -0.159688 -0.347414 0.259193 -0.054144 -0.338686 -0.223474 0.005468 -0.165065 0.078595 0.059860 -0.460607 0.310332 -0.020014 -0.189481 0.153080 -0.082799 -0.073058 0.217978 0.231503 -0.426012 0.169944 -0.091606 -0.161841 -0.045640 0.011558 -0.313221 -0.083603 -0.138376 -0.001284 0.360417 -0.198420 -0.131234 0.093028 -0.197871 -0.091265 -0.056954 -0.100110 0.011820 0.226611 0.272388 -0.375171 -0.036469 0.265084 0.051475 -0.351937 0.029445 -0.279318 -0.562729 -0.130661 -0.140818 -0.096687 -0.335965 -0.308848 -0.024833 0.007537 -0.276145 0.097478 0.199806 0.445773 -0.190074 -0.185449 0.320128 0.035533 -0.279188 0.161139 -0.229346 0.326774 0.324966 0.249792 -0.419111 0.050584 0.161480 0.101832 
( 0.240531 -0.384461 -0.021737 -0.158662 0.058417 0.274877 -0.016878 -0.073456 -0.084853 0.298326 0.060291 0.077935 -0.056258 -0.153361 0.183505 0.229314 0.368279 -0.035074 0.179517 0.121325 0.033478 0.324577 0.161731 -0.129156 0.085221 0.130488 -0.228841 -0.104831 -0.438311 0.207133 -0.078308 -0.321227 -0.282920 0.009092 -0.193487 0.116524 0.038978 -0.425356 0.341049 0.049686 -0.170121 0.147857 -0.036952 -0.065553 0.238233 0.200402 -0.361417 0.208451 -0.140685 -0.217110 -0.041724 -0.033763 -0.293528 -0.053065 -0.125991 -0.041597 0.366835 -0.173372 -0.134156 0.132392 -0.181399 -0.145600 -0.023328 -0.018608 0.022266 0.247572 0.244269 -0.375324 -0.063069 0.230395 0.076506 -0.349587 0.004667 -0.324723 -0.602098 -0.103887 -0.193372 -0.034797 -0.334120 -0.280026 -0.009949 -0.026203 -0.279123 0.054191 0.258309 0.412780 -0.136737 -0.185227 0.291159 0.017024 -0.234476 0.181438 -0.222343 0.300035 0.341070 0.297662 -0.479493 0.077949 0.163102 0.128061 
je -0.184636 -0.474511 0.176917 -0.012809 -0.036531 0.070916 -0.068513 0.007237 -0.148232 0.233877 0.137269 0.039128 0.082877 -0.739779 -0.066306 0.367391 0.165771 -0.192372 0.486185 0.505601 -0.173467 -0.066160 0.406346 0.009185 0.005108 0.312741 -0.113499 0.002149 0.120068 0.182429 -0.258940 -0.045045 -0.697114 -0.081972 0.214652 0.314648 0.229618 0.295990 0.106631 -0.015100 -0.186856 0.579817 0.123183 -0.168948 -0.101324 -0.110671 0.147791 0.094665 -0.150125 -0.131924 -0.006412 -0.283442 0.161277 0.060623 -0.031013 -0.200276 -0.090135 0.205088 0.220022 -0.576930 0.154324 -0.379412 0.155941 -0.107717 -0.011257 0.013115 -0.010605 -0.294207 0.136740 0.281045 0.070363 -0.067276 -0.071945 -0.224449 0.056393 -0.401414 0.115653 -0.065398 -0.227381 -0.256202 -0.166225 -0.146342 -0.078344 -0.150595 0.508470 0.485916 -0.012470 -0.003170 0.052114 0.254178 0.469730 -0.234794 -0.103824 0.148426 0.247501 0.163053 -0.377804 0.258453 -0.150000 0.066801 
s -0.209655 0.068702 0.283205 0.128472 0.078735 0.148077 -0.321536 -0.157754 -0.242742 0.351428 0.226458 0.103372 -0.266523 -0.124051 0.241386 0.300101 0.400824 0.156011 0.557794 0.384297 -0.299107 -0.082531 0.329135 -0.072176 -0.096548 -0.216669 0.007009 0.353330 -0.435370 0.116393 0.090833 0.136607 0.017420 0.322388 0.400616 0.278099 -0.380244 -0.211270 0.049476 -0.108209 -0.123866 0.478387 -0.144853 -0.407943 0.470135 0.342825 -0.168664 -0.042587 -0.032891 0.289375 0.061013 -0.284051 0.306786 -0.079303 0.081602 0.063756 0.072795 -0.240574 0.129417 -0.165541 -0.228540 -0.235824 -0.225552 -0.255445 -0.254478 0.010376 0.303507 -0.358721 0.480085 0.346850 0.046898 0.169676 0.177612 -0.259375 0.348312 0.108818 -0.120460 0.291165 -0.512777 -0.087576 -0.062771 0.028380 0.053532 -0.227064 0.035437 -0.165642 0.156029 0.002556 0.067857 0.230456 0.133591 -0.112333 0.157865 0.075306 0.304442 0.005917 -0.183289 0.376639 -0.049250 0.275122 
pro 0.304769 -0.287034 0.441950 -0.180833 0.070029 -0.115431 -0.145434 -0.041049 -0.168550 -0.032578 0.111306 0.202134 0.018180 -0.182730 0.016502 0.485089 0.199311 0.032188 0.001768 0.607715 0.014429 0.042438 0.382379 -0.114834 0.048338 -0.090214 -0.128474 0.207931 -0.371880 -0.006510 -0.376627 0.198046 -0.374731 0.270404 -0.053458 0.283358 -0.315856 -0.027436 0.154372 -0.413885 -0.083721 0.372839 -0.023125 -0.480742 -0.173511 0.060808 0.091790 0.212769 -0.651041 -0.069385 -0.481154 -0.143282 0.620835 -0.453150 0.264934 -0.308099 0.097202 -0.527865 0.425876 -0.122826 0.130148 -0.104617 -0.020145 0.279493 0.004438 -0.046688 0.052584 0.075366 0.370489 0.216851 0.300179 -0.229978 -0.208258 0.157150 -0.297346 -0.137848 -0.219569 0.422441 -0.296616 -0.182516 -0.148935 0.243255 0.431755 0.184991 0.264960 0.518348 0.113374 -0.463025 0.448975 0.170642 0.022211 0.015479 -0.225728 -0.369972 -0.041733 0.397926 0.039909 -0.221699 -0.059137 -0.076860 
z -0.126024 -0.091248 0.379177 0.002755 0.270246 0.166419 -0.329307 0.071413 -0.428490 0.235287 0.434947 0.234382 -0.165858 -0.286058 -0.059091 0.120662 0.156140 0.097207 0.125330 0.131030 -0.192938 0.501645 0.178587 0.378283 0.051515 0.112020 -0.075958 -0.053565 0.145332 0.017812 -0.027161 -0.002094 -0.446187 0.727708 -0.133889 0.042636 -0.006823 0.049211 -0.317821 0.003835 0.003413 0.227848 -0.269191 -0.306503 -0.112056 0.519302 -0.094597 -0.115804 0.225517 -0.540786 -0.311944 0.046079 -0.326111 0.003999 0.045044 0.193474 0.191941 0.046227 0.267628 0.016570 0.289474 -0.021520 0.217877 0.031521 0.137363 0.039006 0.016158 -0.344169 0.223133 -0.382809 -0.206187 0.041627 0.061269 0.076925 0.090980 -0.050083 -0.242933 0.132272 -0.326639 -0.186055 0.241720 -0.008255 0.124031 -0.241496 -0.042046 0.721084 0.036669 -0.372920 0.378514 0.129895 0.374824 -0.273175 -0.192635 -0.178288 0.112569 0.315597 -0.199167 0.388216 0.164769 -0.179665 
o -0.401636 -0.205239 0.517958 -0.255960 0.008634 0.002234 -0.104435 -0.137350 -0.534333 0.659981 -0.106334 0.518213 -0.205977 0.042186 -0.373702 0.317250 0.042115 0.106265 0.075950 0.164606 -0.226263 -0.020126 0.180123 -0.194701 0.003083 -0.488383 -0.025241 0.153608 -0.074264 0.304157 0.059476 -0.124087 -0.541239 0.155135 -0.175331 0.011903 -0.123947 0.266004 0.187411 -0.355335 -0.181175 0.480610 -0.075125 -0.702197 -0.007705 -0.094473 0.079859 0.287176 -0.371508 -0.185600 -0.169464 0.176064 0.053257 0.065808 0.502354 -0.276658 0.055054 -0.145893 0.362667 0.143462 -0.314102 0.517160 -0.204894 -0.689885 -0.187805 0.407251 0.346222 -0.194449 -0.060680 0.296414 -0.163368 -0.374127 0.432495 -0.174351 0.346319 0.077874 -0.020091 0.026154 -0.316256 -0.299680 0.046211 0.380213 0.268145 -0.224798 -0.275641 0.063502 -0.270877 -0.232580 0.168973 0.259144 -0.013785 0.046560 0.139428 -0.189758 0.056193 0.334632 -0.116000 0.085879 0.279473 0.111320 
do -0.247242 -0.346158 0.247640 0.067618 -0.065412 0.176300 0.128139 0.201069 -0.308545 0.429821 0.588913 -0.048749 -0.168314 -0.216097 -0.226898 0.062798 0.265808 0.085192 0.550275 -0.072026 -0.283729 0.230410 0.025588 0.022758 0.098390 -0.102601 -0.039409 0.301042 0.250393 0.129083 0.083883 0.142296 0.110519 0.527541 0.099917 -0.113000 0.280965 -0.286198 -0.042187 -0.200556 0.629787 0.607789 -0.443206 -0.471117 0.116909 0.207229 0.021907 -0.005249 -0.226678 -0.670926 -0.220633 0.121224 -0.059813 -0.126567 0.147521 0.068740 0.217319 -0.518143 0.022460 0.088062 0.580385 0.034085 -0.160858 -0.226804 0.103716 0.075170 0.014879 -0.121635 0.213818 0.168604 -0.094568 -0.255825 0.470076 0.148224 -0.279731 -0.040514 -0.208839 0.431772 0.030257 -0.118811 -0.074687 0.325508 0.047012 0.200201 0.138730 0.695382 0.472762 -0.238196 -0.166053 -0.088603 -0.025856 -0.331564 0.034150 0.019074 -0.171338 -0.238376 -0.036480 0.051343 -0.368159 -0.434596 
to 0.046652 -0.301123 0.381291 -0.169276 -0.327284 0.172634 -0.057373 -0.040938 0.063509 0.365794 0.066115 0.402888 -0.215071 -0.470151 0.084799 0.075873 0.539389 -0.072445 0.466685 0.336533 0.190647 0.222565 0.345499 -0.331782 0.012759 -0.182466 0.047211 -0.244494 0.740953 0.231435 -0.398579 0.050738 -0.655836 -0.135706 -0.152244 0.141819 -0.114085 0.155395 0.004528 -0.158986 -0.008319 0.253342 -0.053368 -0.096119 0.119544 0.120168 0.081932 -0.087539 -0.124021 -0.037659 -0.404846 -0.242268 -0.063040 -0.214337 -0.038900 -0.050805 0.300910 0.051881 0.233392 -0.534118 0.352934 -0.059494 -0.404173 -0.299682 -0.314183 -0.050652 0.143001 -0.198175 0.132399 0.263391 -0.214369 -0.051933 0.408393 0.000531 0.243806 -0.027448 0.041611 -0.203455 -0.052440 -0.094499 -0.081279 0.185746 -0.152373 -0.251408 -0.044483 0.238003 0.078382 -0.120768 0.377232 -0.192645 -0.211747 -0.018040 -0.207705 -0.043955 0.203970 -0.111474 -0.146915 -0.049629 -0.392236 -0.008237 
i -0.113632 -0.286505 0.188674 -0.311962 -0.028588 0.039302 -0.176616 -0.177527 -0.040738 0.332440 -0.030732 0.242707 -0.199731 -0.071193 -0.016938 -0.138340 0.201886 0.187489 0.392437 0.390522 -0.131235 0.454582 0.467975 -0.137413 0.005427 -0.075922 0.003765 0.022876 0.037567 -0.033056 0.011410 0.281620 -0.387962 -0.046327 -0.167930 0.092517 -0.054169 -0.005000 -0.148353 -0.341990 -0.061079 0.247997 0.015166 -0.427828 0.145110 0.055481 0.027692 -0.152337 -0.100084 -0.177003 -0.210810 -0.180397 0.056750 -0.464294 0.093036 -0.097059 0.140989 0.257787 -0.092088 -0.210713 0.120479 -0.038898 -0.095335 0.154526 -0.012810 -0.019111 0.244819 0.016655 0.152236 0.206247 0.135986 -0.167600 0.059670 -0.205291 0.070012 0.063946 0.051666 0.124873 -0.312999 -0.135003 -0.029203 0.280008 -0.062924 -0.010106 0.517760 0.442795 0.068888 -0.056452 0.389467 0.027907 -0.116738 -0.431773 -0.074430 -0.121495 0.244631 0.164907 -0.192874 0.299516 -0.213700 0.125773 
k -0.180318 -0.454637 0.139540 -0.400415 0.264336 -0.083766 0.106725 0.091516 -0.093383 0.643737 0.254338 0.267826 -0.288859 -0.204577 -0.036897 0.364065 0.277917 0.542048 -0.123814 0.293301 -0.081337 0.066252 -0.074523 0.056070 -0.160758 -0.345282 -0.030240 0.245463 -0.139065 -0.087544 0.152299 -0.151098 -0.113103 -0.100039 0.188299 0.003226 -0.175278 0.221681 0.031690 -0.250865 0.244656 0.470916 -0.147241 -0.376970 -0.078255 0.425211 -0.314390 0.051721 0.022382 0.064590 -0.148934 -0.035779 0.610519 -0.196088 -0.158908 -0.552639 0.448230 0.168646 -0.016065 -0.397923 0.040288 0.265316 0.395756 0.014610 0.330151 0.044471 0.233047 -0.564561 -0.159764 0.129613 -0.174612 -0.208696 0.386980 0.183099 0.164870 -0.535653 -0.097097 0.037733 -0.087623 -0.513306 -0.223781 0.183248 0.514444 0.205093 0.237577 0.844338 0.393627 0.267852 0.141393 0.371413 -0.239134 -0.073795 0.066135 -0.178855 -0.044335 -0.093002 -0.002310 0.212071 0.210639 -0.240540 
že -0.266066 -0.151990 0.381385 -0.645254 -0.194223 0.110045 -0.139406 -0.285915 -0.217166 0.280068 0.194470 0.166284 -0.481208 -0.445757 -0.188721 0.002659 0.401541 0.243076 0.779095 0.262145 0.383742 0.414410 0.303562 -0.008886 -0.200214 -0.154490 0.021084 -0.223744 0.312133 0.002377 -0.703074 0.009972 -0.335807 0.033808 -0.081983 0.049810 -0.242990 0.312018 -0.079920 0.249103 -0.084530 0.313026 -0.166704 -0.241695 -0.202638 -0.265633 0.283038 0.259797 0.231539 0.015547 -0.326180 -0.014299 -0.295348 -0.011131 -0.186650 -0.217801 0.067281 -0.089836 -0.106047 -0.618476 0.248680 -0.122344 0.025426 -0.320343 0.054108 0.170329 0.187267 -0.148414 0.141463 0.096267 -0.196833 -0.318463 0.156827 -0.097093 0.455080 -0.123193 -0.077427 0.052676 -0.140052 0.224469 0.148314 0.337382 0.087713 -0.262294 0.302900 0.338417 0.155214 0.054642 0.672570 -0.067468 0.032631 0.013381 0.089954 -0.129187 0.177586 0.054185 0.095241 -0.068872 -0.190106 0.345405 
/ 0.248166 -0.320288 -0.166929 -0.724207 0.264551 0.505112 -0.030419 0.084731 -0.456965 0.143156 0.577036 0.158618 0.600131 -0.276706 0.309144 0.340367 0.189420 -0.133121 0.095517 0.403163 -0.065631 0.690490 0.482226 -0.326304 -0.442478 0.051307 -0.113817 0.275280 -0.459218 0.506895 0.043780 -0.120221 0.224733 0.133720 -0.087634 -0.082429 0.006081 0.277147 0.234276 0.235173 -0.042526 0.348726 -0.304007 -0.421317 0.119146 -0.047760 0.103139 0.477980 -0.212627 -0.233977 0.086436 -0.060289 -0.041407 -0.438332 0.121184 -0.039188 0.516518 0.200198 -0.239546 0.333284 -0.509686 -0.019152 -0.101371 -0.033011 0.093353 0.597436 0.132064 -0.656136 0.595455 0.399211 -0.158762 0.150936 0.077971 -0.048160 -0.836933 0.052984 0.320558 0.190666 -0.226935 0.047824 -0.211007 0.466819 0.222176 -0.417715 -0.118043 0.224500 -0.098392 0.004531 0.043079 0.078712 -0.351275 -0.164418 -0.338224 0.153719 -0.160631 0.176138 0.082625 0.305028 -0.020423 0.343316 
ve 0.145902 -0.188803 0.469768 -0.435512 0.204174 0.133244 -0.003765 0.067660 -0.135647 0.279845 0.287293 0.204743 -0.057038 0.070017 -0.069286 0.375270 0.124551 0.353818 0.267546 0.375925 0.023986 0.219688 0.155369 -0.127833 0.466550 -0.429871 -0.178965 0.429729 0.376960 -0.008830 0.246705 -0.026170 0.032791 -0.178523 -0.492862 -0.049518 0.131814 -0.162485 -0.009379 -0.058574 -0.072500 0.583242 -0.075881 -0.245105 0.004028 -0.003272 0.484155 0.223548 0.066811 -0.181163 -0.176798 -0.318115 0.309186 0.449423 0.000270 -0.013668 0.156981 0.011386 0.357978 -0.169954 -0.065360 0.125109 -0.070787 -0.182007 0.462862 0.443087 0.533984 -0.204444 -0.234951 0.380111 -0.134443 -0.042196 -0.289748 0.493734 -0.307899 -0.077465 -0.539528 0.226693 -0.005454 -0.210613 -0.495881 0.215723 -0.183620 -0.175886 0.315098 0.557942 0.042719 0.114690 0.060790 0.205829 0.176135 -0.188574 -0.291808 -0.332023 0.128826 0.212894 -0.403776 0.081009 -0.081613 0.117830 
od -0.156047 -0.105950 0.197492 0.039430 -0.089527 0.315973 0.166519 0.040104 0.097860 0.505049 0.361352 -0.091211 -0.136752 0.248607 0.044957 0.832233 0.330556 0.331447 0.742273 0.006612 -0.541878 0.066538 -0.153973 -0.172736 0.149964 -0.116714 -0.365564 0.253035 0.011351 -0.071311 0.232362 -0.557903 -0.198537 0.197043 -0.077816 0.288175 0.324000 -0.260128 -0.252298 0.042500 -0.289801 0.388559 -0.137799 0.103423 -0.361377 -0.179054 0.165677 -0.068573 -0.072492 -0.393407 -0.110154 0.295763 -0.115266 -0.543367 -0.036889 -0.273013 -0.039326 -0.352451 0.408022 0.054751 0.164947 -0.096125 -0.179390 0.082970 -0.098990 0.151356 0.120138 -0.303912 0.241093 0.052868 -0.050257 -0.348922 0.105826 0.512117 -0.230115 -0.025970 -0.319416 0.424108 -0.123059 -0.055426 0.244730 0.177790 0.105438 -0.017297 -0.015377 0.599238 0.444225 0.202682 0.066808 -0.354734 -0.074813 0.267225 0.009043 0.355644 0.203745 0.264657 -0.504527 0.151165 0.085148 -0.729741 
1 0.243369 -0.472080 -0.452187 -0.179045 0.082013 0.243685 -0.230908 0.091157 -0.092070 -0.182345 0.764719 0.723674 -0.202521 -0.269467 0.335674 0.734775 0.080007 0.040120 0.017926 0.227966 -0.342624 0.121372 0.317453 -0.141510 -0.012335 0.047728 -0.446040 0.411400 -0.001851 0.104271 -0.061077 0.062926 0.035063 0.123719 0.209287 -0.335176 -0.106921 -0.739414 0.321296 -0.056321 -0.159227 0.426081 0.092485 -0.019919 0.138689 -0.080345 -0.093601 0.162855 -0.152667 0.124395 -0.347942 -0.000939 -0.342026 -0.307802 -0.199747 -0.106526 0.087069 -0.275986 0.004202 0.501203 -0.142727 -0.135943 0.322736 -0.131940 0.048792 -0.086109 0.413884 -0.385451 0.201612 0.623241 -0.046539 -0.007547 0.260800 -0.094999 -0.427386 -0.102687 0.082691 -0.084858 0.008945 0.136283 0.310559 0.365894 0.259046 -0.153323 -0.015951 0.458569 -0.134154 0.233763 0.387565 0.129362 0.218992 0.072294 -0.130014 0.319403 0.063238 -0.001039 -0.339160 -0.088459 -0.011943 0.058540 
nebo -0.259542 -0.337091 0.188696 -0.189550 0.477834 -0.089663 -0.102207 -0.190869 -0.241707 0.433466 0.158695 -0.020271 0.255882 -0.178980 0.094101 0.079710 0.315224 0.169537 0.257295 0.365357 -0.229825 -0.032087 0.557682 -0.130766 0.203211 -0.116582 -0.386444 -0.465126 0.264349 0.110517 0.064639 0.277875 0.042932 -0.061739 -0.023005 -0.157471 -0.307872 -0.045043 0.594992 -0.667383 0.148900 0.418177 -0.062387 -0.287442 0.089455 0.208564 -0.153297 0.057496 0.222906 -0.162324 -0.231506 -0.141181 -0.011943 -0.169570 0.120751 -0.183251 -0.171077 -0.211528 0.303805 -0.376429 0.051225 -0.415994 0.011564 -0.002115 0.383993 0.385393 0.236632 -0.375913 -0.150891 0.018127 0.062111 0.259196 0.217310 -0.552892 -0.108936 0.070626 -0.036498 -0.063244 -0.532888 0.110071 -0.241350 0.102960 0.099836 0.175065 0.523707 0.464735 -0.024033 -0.192047 0.133960 0.261399 0.042197 -0.008469 -0.269029 -0.311381 0.395793 -0.038742 -0.447408 0.028699 -0.112110 -0.076311 
za 0.009946 -0.462443 0.679742 0.307055 -0.071831 -0.018495 -0.155736 -0.117759 -0.113266 0.612756 0.528973 0.255022 0.021675 -0.206300 -0.347649 0.117431 0.408969 -0.148356 0.267047 0.305695 -0.318013 0.228048 0.528499 -0.094290 -0.057927 -0.030096 -0.085536 0.231615 0.146359 -0.273647 -0.144426 -0.433593 0.053527 0.283010 -0.003478 -0.106146 -0.230517 -0.165522 0.066874 -0.046159 0.000635 0.083516 0.063908 0.217897 -0.110294 -0.121276 0.171264 -0.025944 0.207545 -0.327081 -0.278376 -0.181252 0.139819 -0.264103 -0.323397 -0.226929 0.169198 -0.190523 0.090738 -0.309502 -0.014121 0.101514 -0.179437 -0.141122 0.017955 0.363055 0.272616 -0.511808 0.503137 0.121771 -0.116956 -0.540080 0.119355 0.319678 -0.170711 0.040459 0.209843 -0.177040 -0.194223 -0.141604 -0.495351 0.234575 0.194320 -0.327140 0.327931 0.007376 -0.365678 0.074049 0.756790 0.181509 -0.110585 -0.436391 -0.122406 -0.179714 0.364487 0.117656 0.170124 0.146470 0.302363 -0.321935 
ale -0.019938 -0.186665 0.225147 -0.387158 -0.151354 -0.004900 -0.041771 -0.274984 0.004587 0.626144 0.115245 0.183180 -0.198199 -0.499240 0.018862 -0.219798 0.410387 0.073122 0.438854 0.229151 0.089016 0.200453 0.372908 -0.198001 -0.032004 -0.215066 0.028004 -0.194737 0.395257 -0.139919 -0.369376 0.105948 -0.521228 0.133665 -0.065535 0.015611 0.053092 0.093331 -0.060678 -0.294251 0.015688 0.459186 -0.056527 -0.359153 0.017823 -0.090724 0.143929 0.123931 0.009161 -0.082625 -0.534219 -0.174187 0.057171 -0.183586 0.002926 -0.502473 0.102850 0.279085 -0.059887 -0.352407 0.061417 0.014010 -0.071530 -0.260305 -0.195838 -0.007319 0.112045 -0.067701 0.128291 0.181207 -0.115491 -0.438049 0.165643 -0.065755 0.083381 -0.130786 -0.005967 0.233509 -0.315878 -0.043127 -0.061815 0.130785 -0.199888 -0.150518 0.380984 0.332086 0.075478 -0.017832 0.467247 -0.338386 -0.037373 -0.270148 0.026705 -0.055951 0.202080 -0.040348 0.056818 0.084931 -0.296446 0.096728 
2 0.287421 -0.480551 -0.515226 -0.171173 -0.047691 0.335703 -0.302440 0.004432 -0.139569 -0.221856 0.655978 0.691120 -0.377021 -0.161826 0.380475 0.514045 0.076372 0.199944 0.063542 0.354255 -0.361846 0.236873 0.129363 -0.361043 -0.053975 0.112347 -0.365157 0.456761 0.011549 0.126139 -0.069600 0.108177 0.054099 -0.074576 -0.152442 -0.023629 -0.124558 -0.571814 0.386724 -0.035943 0.044554 0.439270 -0.076028 -0.115244 0.281340 -0.102577 -0.020482 0.141031 -0.092294 0.210552 -0.255950 0.013903 -0.277185 -0.309636 -0.120671 -0.194955 0.093828 -0.275908 -0.073620 0.509376 -0.158186 -0.018334 0.156687 -0.186690 -0.086018 -0.135955 0.403744 -0.442942 0.094783 0.579150 -0.102333 -0.088057 0.200429 -0.135287 -0.178556 -0.150584 0.158371 -0.169643 -0.188053 0.074650 0.189895 0.292711 0.210524 -0.162444 0.060463 0.530506 -0.162879 0.088806 0.281541 0.115520 0.469669 0.133367 -0.182057 0.122594 0.060832 -0.012311 -0.292564 0.066091 0.030859 0.118769 
jsou 0.041017 -0.342377 -0.036878 0.000092 -0.177699 -0.205559 -0.187303 0.071359 -0.064593 0.342816 0.130074 0.122733 -0.200168 -0.739609 0.128514 0.136745 0.153680 -0.144512 0.387342 0.216342 -0.685848 0.186905 0.434227 0.320452 0.362489 0.370045 0.308912 -0.228861 -0.172068 0.248093 0.046271 0.088238 0.203632 -0.143928 -0.070674 0.528318 -0.058224 0.345867 0.049906 -0.503947 0.096475 0.667919 -0.005636 -0.718621 -0.281525 0.150032 0.299347 0.238982 -0.024145 0.029422 0.048154 -0.061010 -0.185497 -0.386459 -0.343259 -0.226061 -0.218485 0.152653 0.503142 -0.497151 0.178473 -0.009318 -0.297316 0.383212 -0.054030 0.383855 0.154300 -0.566051 -0.295985 0.526875 0.073615 -0.090071 -0.085329 -0.280880 0.183630 -0.686150 -0.265737 0.260898 -0.345559 -0.182019 0.188841 -0.537921 0.135336 0.165605 0.393425 0.596303 -0.288190 0.016439 0.108578 0.318000 -0.001421 -0.268465 0.129908 0.273091 0.487096 0.288174 -0.467908 0.224912 -0.099040 0.115930 
by 0.074496 -0.560126 0.624876 0.120446 -0.112424 -0.191208 0.275743 -0.114502 -0.563879 0.129888 0.422503 0.437801 -0.296443 -0.055980 0.004281 0.208486 -0.044037 0.425379 0.321250 0.394886 0.419193 0.572442 0.631753 -0.064933 0.121312 -0.232829 -0.075690 -0.409411 0.362494 -0.112797 -0.044646 -0.250076 -0.411182 0.258037 0.097718 -0.295208 -0.310056 0.332594 -0.184195 -0.351059 0.387877 0.311889 0.248142 -0.278786 0.079027 -0.124100 0.296942 0.273248 0.351495 0.014667 -0.070465 0.027212 0.360549 -0.158462 0.007205 -0.350581 0.421843 -0.129163 0.299164 -0.292527 0.036941 -0.035822 -0.122829 -0.160896 -0.299476 -0.109265 -0.000826 -0.106358 0.137852 0.203831 0.005365 0.143446 0.221721 -0.090536 0.017291 -0.094209 -0.001224 -0.315296 -0.199570 -0.306484 0.280093 0.476382 -0.254560 -0.079290 0.095558 0.403732 0.279765 -0.062888 0.479665 -0.366349 -0.100328 0.111813 0.006982 -0.097069 0.185212 0.138104 -0.094413 -0.214409 -0.575379 0.156739 
jako -0.058381 -0.233522 -0.031151 -0.055475 -0.002017 -0.223532 -0.272545 -0.352707 0.068335 0.458246 0.525254 -0.207090 0.291725 -0.317854 0.062645 -0.035872 0.214177 -0.076645 0.419281 0.551562 0.154709 0.284722 0.228263 -0.349284 -0.131326 -0.292422 -0.023814 0.018773 -0.087230 -0.233046 -0.282167 -0.087217 -0.395192 -0.235009 -0.306606 0.202034 -0.152566 0.084128 -0.248268 -0.267229 0.119047 0.055515 0.129680 -0.485328 -0.341312 0.221068 0.106983 -0.027895 0.226012 -0.366511 -0.306018 -0.069507 0.077035 -0.305603 0.001141 -0.101679 -0.112688 -0.192515 0.090154 -0.372742 -0.037395 -0.177017 0.413966 0.076185 0.083611 0.339298 0.161679 -0.252679 0.018660 0.219232 0.291337 -0.366789 0.084323 -0.326151 -0.363064 -0.374041 -0.293179 0.072131 -0.090479 -0.062851 0.230829 0.266173 -0.001180 0.069511 0.603558 0.367743 0.115631 -0.063714 0.427632 0.132984 0.261895 -0.353470 -0.032399 -0.348481 0.022191 0.130030 -0.412032 -0.011187 -0.327176 0.090049 
po -0.154165 -0.126808 0.578470 0.219072 0.283576 0.157817 -0.171900 0.139294 -0.309276 0.255335 0.134828 0.397011 0.340824 -0.041858 -0.116286 0.424598 0.202512 0.584107 0.518520 -0.148667 0.090158 0.345440 -0.173228 -0.108054 -0.023899 -0.218299 -0.137797 -0.051166 -0.220651 -0.018101 -0.270041 -0.376687 -0.067357 -0.100142 -0.184316 -0.017838 0.083391 -0.055016 -0.131877 -0.335699 -0.274472 0.416840 -0.375150 -0.540708 0.052549 0.143984 -0.012552 -0.332274 -0.128529 -0.429926 -0.206698 0.043487 0.220428 -0.090354 -0.208147 -0.316909 -0.214936 0.502501 0.225637 0.236345 0.012127 0.358051 0.111954 -0.384509 0.045771 0.182977 0.866180 -0.214784 -0.024407 0.020249 -0.213595 -0.354297 -0.046171 -0.288128 -0.063644 -0.147714 -0.080204 0.166772 -0.247155 -0.048580 -0.349993 0.246437 0.030744 -0.271597 0.410173 0.568574 0.429594 0.065252 0.212630 -0.162096 -0.021823 -0.123871 -0.184945 -0.347877 0.284795 -0.031599 0.106507 -0.091686 -0.431785 -0.498538 
tak -0.108859 -0.154390 0.383655 -0.131373 -0.205560 -0.058792 -0.023784 -0.225610 -0.119598 0.364209 0.211498 0.330668 -0.139738 -0.426158 -0.113232 -0.062234 0.251253 0.109273 0.587422 0.230156 0.153748 0.384812 0.336532 -0.209399 -0.186115 -0.076528 -0.132914 -0.310902 0.441171 0.036188 -0.258901 0.042709 -0.456980 -0.007678 -0.174706 0.043950 0.056751 -0.012112 -0.047094 -0.284820 0.040112 0.428083 0.025631 -0.273402 0.036546 0.061519 0.149021 -0.132153 0.218032 -0.136036 -0.373366 -0.212251 0.074468 -0.167425 -0.130143 -0.343802 0.165696 -0.014062 0.182714 -0.439473 0.122979 0.180782 -0.201013 -0.294032 -0.110433 -0.153360 0.202040 -0.080311 0.187463 0.070656 -0.100540 -0.012954 0.063439 -0.120772 0.040083 -0.136764 -0.094087 0.048585 -0.166243 -0.158548 0.001506 0.273173 -0.078414 0.035097 0.219277 0.346578 0.097192 0.054101 0.450741 -0.198220 -0.039097 -0.194127 0.007375 -0.231359 0.123504 -0.148280 -0.005664 0.028126 -0.385089 0.076777 
3 0.284901 -0.294771 -0.467102 -0.286147 -0.176137 0.348458 -0.350283 0.047563 -0.188092 -0.226161 0.770840 0.645698 -0.329390 -0.220242 0.489251 0.578493 -0.034622 0.043145 0.203394 0.275852 -0.299334 0.147603 0.035546 -0.357152 0.050706 0.203197 -0.173627 0.419945 0.167751 -0.023481 -0.026624 -0.088487 0.063228 -0.033427 -0.163022 -0.087866 -0.156788 -0.524364 0.411749 -0.085305 0.063414 0.405497 -0.085838 -0.108181 0.379878 -0.047280 0.064799 0.133065 -0.128717 0.257449 -0.081273 0.041404 -0.271242 -0.346359 -0.057338 -0.157457 0.156279 -0.313661 -0.126112 0.415792 -0.085589 0.051441 0.126369 -0.067159 0.026366 -0.122311 0.357396 -0.338565 0.008679 0.630159 0.038131 -0.176752 0.116969 -0.014561 -0.101111 -0.178151 0.176465 -0.185479 -0.269230 -0.166436 0.108595 0.315988 0.231413 -0.202242 0.111985 0.528355 -0.110028 0.090933 0.346132 0.127832 0.412208 0.230946 -0.267565 -0.084806 0.085152 -0.091436 -0.299518 0.119566 0.021622 0.050886 
které 0.139037 -0.325140 0.325029 -0.565562 0.025959 0.026929 -0.236606 -0.349879 0.162197 0.623262 0.130093 -0.037729 -0.199914 -0.166713 0.187844 -0.103230 0.127249 0.155947 0.304914 0.124352 -0.183590 0.557202 0.467655 0.071695 0.096179 -0.247988 0.084697 0.055848 0.221545 0.101210 -0.145588 0.256117 0.009520 -0.137647 -0.059384 0.077694 -0.337491 0.239855 -0.103437 -0.227332 -0.058847 0.660049 -0.123469 -0.367993 -0.050715 -0.045388 -0.029293 -0.009618 0.194933 -0.189888 -0.011394 0.021362 -0.013783 0.055125 -0.307185 0.058415 -0.122036 -0.427069 0.049833 -0.146970 0.069225 0.135411 0.126411 0.308857 0.182839 -0.026258 0.267301 -0.152183 0.177898 0.192634 -0.427161 -0.261603 -0.008752 0.098482 0.304270 -0.113590 -0.203175 0.475352 -0.202528 0.181562 0.349530 0.244844 -0.209752 0.062879 0.598409 0.518781 0.104545 0.193154 0.398867 -0.094023 -0.138561 -0.012721 -0.164155 -0.413222 0.490778 -0.072070 0.016355 -0.140855 -0.042610 0.054957 
u -0.288124 -0.013890 -0.145415 -0.248481 0.343275 0.062263 0.123730 0.167746 -0.265329 -0.068294 0.175904 -0.125842 -0.188970 -0.256764 -0.163558 0.322064 0.291918 0.639042 0.539025 0.362428 -0.208062 0.267830 0.078763 -0.514163 0.171156 -0.165413 -0.237344 -0.170840 0.160570 -0.663864 0.363315 0.062064 -0.694491 0.141307 -0.384966 0.262723 0.027692 0.029768 0.112736 0.118211 -0.082889 0.481854 0.123705 -0.351630 0.104513 0.117804 -0.159785 -0.139772 0.003012 -0.122441 0.018391 0.243442 0.067774 -0.615876 -0.124031 0.216356 0.440554 -0.130086 0.203588 -0.161021 0.017167 0.075266 -0.026421 -0.026959 -0.088049 0.075060 0.083686 -0.305489 0.332576 0.082114 -0.240959 -0.385673 -0.056173 0.146683 0.257160 0.228240 -0.697720 -0.104025 -0.129184 0.095832 -0.105108 0.064268 0.397434 0.014143 -0.196746 0.422874 0.266308 -0.150051 0.211215 0.093285 0.133954 -0.334397 0.154121 -0.051000 0.391753 0.170805 -0.378991 0.151091 -0.080078 -0.318631 
jak -0.233907 -0.196438 0.210277 -0.460597 -0.263345 0.145849 -0.049767 -0.286942 0.069998 0.456091 0.112405 0.311350 -0.490942 -0.392380 -0.185423 0.228204 0.354735 -0.023217 0.322685 0.021908 0.179640 0.263741 0.235674 -0.269861 -0.311999 -0.260781 -0.100851 -0.392482 0.624250 0.200617 -0.348407 0.143594 -0.589306 0.125616 -0.314225 0.184503 -0.091046 0.341295 -0.189299 -0.336841 -0.003785 0.498721 0.112492 -0.111522 0.140410 -0.232367 0.334689 -0.326071 0.025277 0.044442 0.061896 -0.270981 -0.188489 -0.335125 0.129759 -0.213615 0.159293 -0.111131 0.484662 -0.289730 0.084161 0.246639 -0.150347 0.246887 -0.167504 -0.151157 0.616083 -0.136937 0.214850 -0.017762 0.431580 0.446592 0.281646 -0.185193 -0.045991 -0.086357 -0.276609 0.177757 0.052272 -0.289516 0.073746 0.122224 0.257318 -0.069976 0.392008 0.033465 0.382194 0.174938 0.359467 0.083215 0.068040 -0.019905 -0.187575 -0.229801 -0.112567 0.111833 -0.013724 0.067793 -0.665078 0.031207 
kč 0.418603 -0.147209 -0.367721 -0.265077 0.241758 0.222225 -0.164812 0.449544 -0.052347 0.376119 0.642531 0.571342 0.052219 -0.042334 0.085223 0.585477 0.571191 0.408381 -0.273449 -0.145001 -0.710561 -0.022238 0.158910 -0.181002 -0.031691 0.134181 -0.105282 0.462986 -0.003780 -0.074359 0.184279 -0.397317 0.489052 0.297550 -0.126232 -0.189461 0.040258 -0.299450 0.762513 -0.615281 0.003454 0.738301 0.269161 0.041381 0.317277 -0.805665 -0.117305 0.679897 -0.058940 -0.504309 0.139687 0.072231 -0.248314 -0.093031 -0.043479 0.046048 -0.178376 -0.591630 -0.303263 -0.540407 0.372082 -0.464444 -0.066384 -0.098256 -0.238393 -0.358884 0.452618 -0.108247 0.992840 0.096424 -0.525001 0.143318 0.395321 0.134447 -0.747985 -0.179562 0.445148 0.132632 -0.508277 0.195071 0.064314 0.403740 0.827220 -0.655511 0.467160 -0.037863 -0.132629 0.406459 0.582752 0.270765 -0.533932 0.433732 0.308691 0.333503 0.133402 0.521827 -0.613716 -0.033800 -0.668055 -0.321322 
5 0.247240 -0.352035 -0.684428 -0.251946 -0.252236 0.301636 -0.111711 0.041562 -0.207005 -0.286038 0.907475 0.548805 -0.184683 -0.153841 0.472940 0.483440 -0.001886 -0.085010 0.421816 0.181472 -0.358997 0.160704 0.297953 -0.181590 0.122015 0.237735 -0.169779 0.425710 0.153954 0.056834 0.022110 -0.126775 -0.224033 0.084476 -0.150361 -0.158291 -0.265382 -0.269068 0.355522 -0.052862 -0.177752 0.256721 -0.238233 -0.107486 0.481566 -0.017926 -0.153918 0.108106 -0.339415 0.155114 -0.052864 0.195651 -0.412569 -0.173116 -0.089061 -0.073556 0.152913 -0.135486 -0.223050 0.364727 0.078743 0.098911 0.111869 -0.288307 -0.121360 -0.123129 0.125682 -0.468230 -0.024317 0.519283 -0.068902 -0.025128 0.073549 -0.005351 0.033994 -0.202098 -0.103579 0.073591 -0.308211 -0.299407 -0.016187 0.544868 0.376511 -0.212721 0.148628 0.418087 -0.150641 0.171342 0.372790 0.040966 0.220312 0.348198 -0.339763 -0.141787 0.053864 0.024250 -0.343645 0.125572 0.009215 -0.156127 
4 0.319262 -0.352586 -0.546328 -0.251898 -0.140600 0.250623 -0.247622 0.074927 -0.192760 -0.304904 0.762016 0.580629 -0.377460 -0.211474 0.552515 0.379434 -0.083176 0.008572 0.294252 0.335210 -0.290184 0.117954 0.130797 -0.285190 0.030361 0.098538 -0.214019 0.536143 0.050740 0.064977 -0.131142 -0.037204 -0.051522 -0.036777 -0.268285 -0.037553 -0.223743 -0.459653 0.373539 -0.052835 -0.009233 0.352848 -0.090309 -0.175174 0.405238 -0.097893 -0.016087 0.230307 -0.266335 0.316394 -0.074838 0.093684 -0.331325 -0.353544 -0.180138 -0.154394 0.275356 -0.219644 -0.128048 0.407576 -0.036097 0.152898 0.112187 -0.164321 -0.025874 -0.133366 0.301383 -0.358667 0.110732 0.651151 0.098787 -0.113390 0.057769 -0.004545 -0.130810 -0.124190 0.106963 -0.020393 -0.296353 -0.226239 0.043538 0.424762 0.335126 -0.140704 -0.059735 0.442160 0.008844 0.104690 0.369934 0.108038 0.369820 0.324203 -0.348715 -0.162288 0.077534 0.043061 -0.383782 0.138111 0.110143 0.031378 
byl -0.576012 -0.493468 0.543773 0.275750 0.041141 0.014750 -0.379827 0.098964 -0.598942 -0.095039 0.051984 -0.204067 0.105290 -0.932423 -0.194418 -0.191321 0.093798 -0.378125 -0.011578 0.399728 -0.315511 0.082936 0.068995 -0.073166 0.183840 0.280905 -0.162337 0.354732 0.082175 -0.690899 -0.452363 -0.310017 -0.400650 0.010958 0.242842 0.106251 0.231475 0.112328 -0.334373 0.166535 0.116541 0.105907 -0.183383 -0.552357 0.366934 -0.100075 0.087494 0.325685 0.068725 -0.025777 0.040297 -0.060648 0.274860 0.183772 -0.180219 -0.174280 -0.134498 0.434655 0.177309 -0.270252 -0.352509 -0.480669 0.060725 -0.367293 0.182908 0.392117 -0.003010 -0.215077 0.438750 0.836868 -0.048030 -0.063173 0.007418 -0.168730 -0.108070 -0.427320 -0.195954 -0.094375 -0.221069 -0.721289 0.377753 0.430072 -0.334983 -0.315964 0.415452 0.748035 -0.091870 -0.050407 0.433243 -0.503245 0.103644 -0.004691 -0.079200 0.494705 -0.022969 0.140770 -0.500772 0.276209 -0.552216 -0.169999 
který -0.352565 -0.079427 0.506871 -0.495020 -0.119562 0.216592 -0.029583 -0.433268 -0.011263 0.257762 0.156491 0.014927 0.068021 -0.388874 -0.204124 0.010862 0.317085 0.092292 0.059335 0.388700 0.057035 0.229506 -0.077071 -0.103610 -0.047187 -0.122080 -0.257635 0.369868 0.122796 -0.212982 -0.250338 0.049360 -0.504330 0.094776 -0.114040 -0.198367 -0.252803 0.268406 -0.021297 -0.004222 0.098153 0.134731 -0.041987 -0.193664 0.251621 -0.266978 0.077889 -0.188496 0.212294 -0.264474 0.033654 0.032951 -0.158494 0.296964 0.048242 0.065723 -0.319514 -0.132870 -0.076591 -0.122200 -0.259475 -0.576217 0.230750 -0.467407 0.317339 -0.027993 0.341954 -0.180956 0.312724 0.368889 -0.158934 -0.071602 0.044369 0.258003 0.239384 -0.208833 -0.099453 0.461976 -0.075030 -0.004655 0.124211 0.401424 -0.056127 0.102777 0.668199 0.652259 0.138045 0.177657 0.593077 -0.261683 -0.020952 0.017633 -0.085242 -0.055426 0.291987 0.171771 -0.183066 0.051481 -0.003516 -0.055402 
také -0.106820 -0.312103 0.091971 -0.294074 -0.143072 0.157693 -0.078094 -0.363928 -0.145896 0.375314 -0.008459 0.062274 -0.416854 -0.063364 -0.263404 -0.254616 0.302803 0.131178 0.271201 0.262652 -0.129337 0.348629 0.201065 -0.003504 0.083085 -0.220415 0.049129 0.058114 0.035765 -0.062272 -0.075697 0.052980 -0.422384 -0.063663 0.063524 0.089925 -0.226471 0.256544 0.077775 -0.079686 -0.136092 0.328113 0.016065 -0.326638 0.125825 -0.005392 0.197212 -0.028302 -0.017758 -0.436643 0.048272 -0.079872 -0.051375 -0.157682 0.011386 -0.066297 -0.020398 0.012438 -0.104329 -0.284228 -0.096556 -0.239185 0.358501 0.421669 0.140367 0.083053 0.160437 0.071894 0.197945 0.443498 0.132370 -0.224281 0.249812 -0.070164 0.066012 0.154085 -0.098259 0.416404 -0.301206 0.037929 -0.055658 0.137344 0.042831 -0.110275 0.566060 0.559444 0.230523 -0.084659 0.489911 0.097628 0.076692 -0.366557 -0.116984 -0.325582 0.274163 0.034532 -0.221735 0.281797 -0.031152 0.335102 
při -0.233535 -0.539103 0.748267 -0.411176 -0.020458 0.549995 -0.272823 -0.215591 -0.223464 0.038305 -0.032635 0.204571 -0.170413 -0.381009 -0.196980 0.365465 -0.099118 0.254768 0.250408 -0.233041 -0.087817 0.505870 -0.100060 -0.005664 -0.141457 -0.224878 0.142856 -0.097871 -0.189353 -0.277626 -0.122037 0.033951 -0.191204 0.149569 -0.166185 0.283725 0.042043 -0.224474 -0.083720 -0.014781 -0.273702 0.744672 -0.004792 -0.323047 -0.173879 0.197695 -0.394344 -0.157071 0.303982 -0.169338 0.192188 0.111628 0.371998 0.114813 0.111486 -0.037791 0.192643 -0.119361 0.061241 -0.367355 -0.061486 0.224191 0.100729 -0.045969 0.424136 0.433947 0.629851 -0.177124 0.046158 0.084350 -0.340416 -0.173388 0.262156 0.015333 -0.001216 0.219428 -0.074888 0.113709 -0.176925 0.103165 -0.363648 0.071556 0.507914 0.136200 0.302809 0.288034 0.165160 -0.081863 0.616799 0.078116 -0.215049 -0.342718 0.173866 -0.646265 0.001523 0.668163 -0.285399 -0.045098 -0.447923 -0.194809 
jeho -0.351643 -0.309160 0.696154 -0.236533 0.024453 0.117195 0.112065 -0.297743 -0.039582 0.427642 -0.112158 0.296075 0.027286 -0.235861 -0.268222 0.022755 0.062705 0.119767 0.300035 0.078456 0.160862 0.599057 0.266295 -0.177860 0.004287 -0.192704 -0.053158 0.174988 0.159334 0.019472 -0.402858 0.036211 -0.066990 -0.037787 0.156215 0.239015 -0.270859 0.195586 0.073539 -0.033963 0.097611 0.226757 -0.281386 -0.396582 -0.077820 0.048985 0.168957 -0.162538 -0.142248 0.068048 0.006585 -0.072720 -0.310490 -0.003972 0.044035 -0.672080 -0.091265 0.216587 -0.247831 -0.171908 -0.118802 -0.296589 0.375745 -0.383243 0.075256 0.297503 -0.048469 -0.093225 0.194522 0.407625 -0.077572 -0.050396 -0.263130 -0.191400 0.079071 -0.002498 -0.317312 0.102791 -0.017573 -0.140118 -0.127722 0.232799 -0.030040 -0.076625 0.564558 0.393559 0.153660 -0.058382 0.406547 -0.022736 -0.020589 -0.110618 -0.216463 -0.108033 0.508861 -0.004676 -0.170619 0.348488 -0.215509 -0.130291 
ze -0.106718 -0.052993 0.417728 -0.126089 0.398189 0.263596 -0.485225 0.251347 -0.456544 0.285973 0.469730 -0.129631 -0.103141 0.115560 -0.100026 -0.085196 0.093207 0.084380 0.612903 0.194587 0.176150 0.486424 0.207162 -0.180676 0.157709 -0.050528 -0.266660 0.088939 0.531228 0.191272 -0.081753 -0.072138 -0.585197 0.718585 -0.396547 0.171678 0.281759 0.010360 -0.211869 -0.085544 -0.063647 0.415438 -0.284416 -0.385386 -0.173990 0.596633 0.216329 -0.142972 0.044141 -0.207233 -0.237364 -0.155770 -0.155395 -0.156263 0.105953 0.104444 0.191173 0.191222 0.351237 0.035981 0.260205 0.211146 -0.113214 -0.208398 0.365351 0.037082 -0.122190 -0.574010 0.035422 -0.199903 -0.506377 0.066508 -0.248001 0.098952 -0.119822 -0.312419 -0.130243 0.130811 -0.261470 -0.264817 0.325197 0.121069 0.008069 -0.036030 0.116977 0.426659 -0.120410 -0.157476 0.174603 -0.028364 0.438790 -0.238163 -0.355332 -0.017566 0.283009 0.198226 -0.052529 0.310808 0.146917 -0.030339 
jen -0.100167 -0.176858 0.241513 -0.194347 -0.014582 0.028639 -0.065183 -0.070851 0.080754 0.554047 0.318473 0.494106 0.055656 -0.294657 0.070833 0.102885 0.323663 0.088588 0.549233 0.205199 -0.143511 0.129831 0.498980 0.061075 0.025886 0.030134 -0.033778 -0.254654 0.378690 -0.016788 -0.102662 -0.102789 -0.539814 -0.016013 -0.073252 0.076968 -0.054510 0.075313 -0.009909 -0.369803 0.055238 0.346896 -0.098640 -0.226952 -0.113271 -0.033605 0.195947 -0.143856 -0.103694 -0.111822 -0.293685 0.032018 -0.070372 -0.158785 -0.174718 -0.421956 0.207758 -0.146819 0.266376 -0.538543 0.032162 0.208322 0.016374 -0.334646 -0.073143 0.068661 0.208904 -0.197938 0.143998 0.051760 -0.151393 -0.340907 0.279186 0.045578 -0.041480 -0.149321 -0.177946 0.058740 -0.253900 0.163120 -0.207616 0.239474 -0.255151 -0.004811 0.327087 0.247552 -0.050015 -0.150632 0.207427 -0.063586 0.230414 0.111197 -0.040593 0.016838 0.084880 0.071996 -0.194623 0.060509 -0.196724 -0.035501 
má -0.302872 -0.617598 0.157009 -0.204056 0.102452 0.112693 0.175699 -0.811694 0.035567 0.243046 0.166008 -0.003663 -0.274553 -0.735934 0.322243 0.180062 0.287108 -0.022233 0.538995 0.420511 0.281593 0.223525 0.420101 -0.009755 0.024955 0.023208 0.200998 0.206907 -0.433672 0.120931 -0.118212 -0.042643 -0.397356 -0.014754 0.183731 0.035779 -0.080208 0.110766 0.197131 0.130343 -0.046529 0.553553 -0.020516 0.112703 -0.227629 -0.383952 0.442983 -0.012778 -0.237558 -0.332412 -0.109144 0.006761 0.082300 0.219049 -0.181094 0.083017 -0.239750 0.054470 0.159885 -0.212609 -0.212290 -0.241793 -0.006715 0.152760 -0.007157 0.000898 0.322890 -0.116191 -0.149990 -0.013627 -0.073790 0.094137 -0.102840 -0.411990 0.070225 -0.189681 -0.078888 -0.168034 -0.572344 -0.438304 -0.015596 0.396667 0.066725 0.065456 0.377033 0.485611 -0.081396 0.086812 0.618488 0.187125 0.736219 0.073560 -0.085903 0.280322 0.268949 0.214367 -0.458841 -0.001949 0.351496 -0.248231 
až -0.163000 -0.284723 0.240918 0.011947 0.008991 0.147382 -0.053318 -0.022323 0.057697 0.018813 0.188240 0.009078 -0.195483 -0.273950 -0.046885 0.254197 0.530152 0.117379 0.708019 0.255393 -0.341746 0.445243 0.265304 -0.243954 -0.287799 0.116913 -0.047648 0.439158 0.162606 0.000115 0.010259 0.183264 0.302786 0.053097 0.112419 0.193119 0.172831 -0.266475 0.142629 -0.313349 -0.146676 0.409765 -0.444783 -0.343496 0.082556 -0.464720 -0.189539 -0.388833 -0.135322 -0.488392 -0.049416 0.077239 -0.101147 0.077023 -0.345679 -0.218331 0.173879 0.026239 -0.284736 0.066413 0.177461 0.497272 0.002958 -0.315232 0.207665 0.129583 0.478269 -0.192434 0.073532 -0.095888 -0.285528 -0.428886 0.134195 0.018617 0.006659 0.241788 -0.191129 0.086712 -0.193624 -0.276217 -0.121148 0.457260 0.087771 -0.059164 0.229867 0.762603 0.163326 -0.057989 0.239272 -0.207479 0.146429 0.094161 0.185058 -0.071223 0.190120 -0.192543 -0.425811 -0.037028 -0.211746 -0.180018 
když -0.116450 -0.093294 0.343812 -0.251883 0.009836 -0.093999 -0.091018 -0.351210 -0.057282 0.280078 0.333970 0.222957 -0.239562 -0.462695 -0.061790 -0.227826 0.287372 0.093962 0.608394 0.166518 0.345242 0.368264 0.448204 -0.241737 -0.365267 -0.412482 -0.021082 -0.091056 0.304821 -0.158033 -0.577914 -0.054018 -0.391472 0.034220 -0.320811 0.009611 -0.072353 0.061976 -0.113675 0.032832 0.090283 0.233316 -0.077450 -0.404793 0.012673 -0.067623 0.193515 -0.004491 0.396667 -0.236695 -0.211950 -0.089719 -0.128996 0.078280 -0.192299 -0.353405 0.344840 -0.278343 -0.012692 -0.252613 0.083601 0.139559 -0.106175 -0.479889 0.026687 0.095948 0.338190 0.014345 0.124693 0.008974 -0.235107 -0.207781 0.099793 -0.091529 0.142349 -0.027618 -0.117680 0.161476 -0.035241 0.133379 -0.175886 0.474584 -0.069144 -0.118663 0.353078 0.468069 0.273255 -0.057948 0.680448 -0.064086 -0.154284 -0.155099 0.159470 -0.287625 0.030020 -0.165604 -0.093220 0.026092 -0.572236 0.075246 
podle 0.077933 -0.874726 0.472345 0.035327 0.100493 -0.073097 -0.178691 0.150274 -0.302890 0.456999 0.023842 0.342110 -0.441828 -0.212880 0.133554 0.465337 -0.048724 0.219126 0.319929 0.363561 0.364558 0.269347 0.052691 -0.365681 -0.014165 -0.227196 -0.470134 0.047403 0.528710 0.135309 0.187125 0.287526 -0.255525 0.798759 -0.193469 0.189996 -0.670879 0.297825 -0.278198 -0.418768 -0.252519 0.071575 0.158452 -0.013288 -0.057773 -0.152451 -0.146545 0.241708 0.171281 -0.433535 -0.466293 0.123035 -0.250429 -0.282506 -0.027381 0.163738 0.419836 -0.030477 0.250866 -0.003998 -0.125822 0.039529 0.308932 -0.186532 0.442398 0.210926 0.304188 -0.286628 0.294884 -0.178109 0.206062 -0.331867 0.044434 0.111481 0.179603 0.123495 -0.430115 0.235993 -0.235288 -0.577683 -0.093962 -0.182985 0.129283 -0.155309 -0.164698 0.529280 0.181010 -0.026221 0.338284 0.025539 0.220344 0.276703 -0.081317 0.161706 0.666757 -0.016768 0.053364 0.337191 0.066761 -0.416577 
aby 0.117102 -0.406341 0.696577 0.052202 -0.136047 -0.354584 0.146916 -0.166621 -0.500517 0.341968 0.453753 0.390373 -0.221177 -0.068525 -0.253533 0.049527 -0.169834 0.455038 0.423042 -0.055871 0.635568 0.517042 0.459253 -0.068934 0.020478 -0.182480 -0.375169 -0.228542 0.284750 0.056160 -0.145696 -0.073610 -0.480777 0.242135 0.217222 -0.340901 -0.260540 0.392980 -0.089354 -0.352004 0.376246 0.312439 0.279505 -0.466030 0.165380 -0.030450 0.344810 0.187407 0.427165 -0.018463 0.016485 0.065783 0.364332 -0.208235 -0.089247 -0.613666 0.209909 -0.324654 0.352426 -0.398161 0.024646 0.065980 0.030231 -0.243086 -0.209757 -0.056371 -0.136036 -0.225626 0.117441 0.365934 -0.128508 0.133181 0.105219 0.108809 0.151353 -0.118844 0.024948 0.189214 -0.092990 -0.209235 0.234308 0.580456 -0.202751 0.079251 0.480808 0.486955 0.423449 0.069623 0.689295 -0.274902 -0.129774 0.003946 0.103323 -0.380573 0.258553 0.153924 0.095336 -0.259236 -0.794725 0.237710 
roce -0.192436 -0.195048 0.271797 0.304364 0.443681 0.023205 -0.322128 -0.109245 -0.487848 0.395983 0.016933 -0.150973 -0.531229 0.103675 -0.224473 -0.027462 -0.279088 0.042492 0.259519 0.532167 -0.254154 0.806217 0.251780 -0.326786 -0.253831 -0.170201 -0.036716 0.462824 -0.216798 -0.671080 -0.183009 -0.395581 -0.009782 0.293148 -0.080059 0.362728 -0.229705 0.100739 -0.216369 0.177604 -0.581193 -0.039156 -0.039098 -0.130574 0.069062 0.050603 -0.047138 0.293112 -0.188129 -0.497245 -0.173048 0.282614 0.291982 0.166645 -0.802739 -0.035329 -0.095419 -0.093602 -0.284768 -0.059235 0.072590 0.120029 0.466431 -0.553507 0.004204 0.319156 0.247021 0.317864 0.620151 0.662647 0.119259 0.005827 0.183051 -0.270130 -0.174266 0.022577 -0.189310 -0.019034 0.143294 -0.440473 0.316012 0.294213 -0.317235 -0.662699 0.524987 0.526281 0.449611 0.107270 0.586343 0.072508 0.144297 -0.018352 -0.250104 -0.048283 -0.035236 0.027735 -0.291618 -0.018827 -0.529889 0.253900 
další 0.105902 -0.175799 -0.056522 -0.146167 0.052820 -0.171035 -0.590984 -0.231781 -0.179093 0.506639 -0.197446 0.443344 -0.382763 0.083378 -0.533426 0.168849 0.283221 0.091661 0.118338 0.129415 -0.426750 0.379256 0.057933 0.038530 0.103415 -0.452206 0.084638 0.074830 0.006093 0.270490 0.061486 0.204128 0.251173 0.029153 -0.008245 0.208610 -0.371089 -0.120422 0.440032 0.006601 0.157987 0.470338 -0.371501 -0.443684 -0.134881 -0.010014 0.226174 0.328853 -0.004466 0.110116 0.138837 0.100487 0.086900 0.016306 -0.139987 -0.224356 0.348787 -0.307808 0.258304 0.002713 -0.126234 -0.373307 0.418451 0.186503 -0.224897 0.098090 0.198206 0.037086 0.236399 0.153230 0.001557 -0.092428 -0.004960 -0.125748 -0.107172 0.188611 0.247183 -0.006890 -0.208506 0.219007 -0.024940 0.308104 0.475281 -0.186281 0.161285 0.973509 -0.039341 -0.239203 0.455408 -0.014507 0.198478 -0.226833 -0.168169 0.180486 0.303071 -0.008131 -0.219401 -0.136530 0.240645 0.138823 
10 0.338253 -0.388682 -0.362693 -0.137770 -0.121164 0.328308 0.013752 0.071911 -0.040469 -0.240474 0.920337 0.343523 -0.229498 -0.291796 0.104040 0.285327 0.047276 -0.148675 0.512299 0.017852 -0.606403 0.214234 0.422073 0.015039 0.018222 0.218122 -0.286889 0.192992 0.260721 0.054398 0.089140 -0.408836 -0.033880 -0.245199 -0.167457 -0.084057 -0.197487 -0.315339 0.180672 -0.150172 -0.536333 0.600966 -0.192779 -0.058659 0.150505 0.228009 -0.197914 -0.046697 -0.343084 -0.122143 -0.082654 0.084674 -0.125177 0.056027 -0.032055 0.029648 0.092787 -0.105296 -0.249840 0.471428 -0.115454 -0.138631 -0.048584 -0.150045 -0.342395 -0.038646 0.243752 -0.595466 0.266580 0.312881 -0.266606 -0.064121 -0.116417 0.004757 -0.190690 -0.316764 -0.120684 0.021134 0.003604 -0.304677 -0.108380 0.533299 0.245230 -0.268034 -0.173506 0.362253 -0.107590 0.057430 0.280477 -0.019557 -0.175204 0.285267 -0.342558 -0.015750 -0.076737 0.283539 -0.056601 0.029163 -0.109453 -0.133247 
bez 0.103401 -0.220152 0.176321 0.345436 0.507870 0.444878 -0.240921 0.276906 -0.266557 0.715166 0.251010 0.192660 0.084417 -0.068322 0.339154 0.376998 0.863276 -0.238794 0.436945 0.168789 0.075421 0.564738 0.201604 -0.103353 0.530585 -0.271244 -0.447912 -0.057797 -0.104711 -0.290819 0.367584 0.469668 0.113875 0.655300 -0.143294 -0.429515 -0.035746 -0.178969 0.105577 -0.656309 -0.347717 0.839626 0.256195 -0.240207 -0.268277 -0.031136 -0.359599 0.009405 -0.367101 0.294083 0.370447 -0.098634 0.099222 -0.291696 0.023886 -0.411358 0.225606 -0.206109 0.140124 -0.568189 0.686126 -0.674285 0.075750 -0.262258 -0.319392 0.184209 0.331433 -0.353868 0.089115 -0.133584 -0.309397 -0.346025 0.096634 0.213555 -0.216489 -0.204569 0.141664 0.032907 -0.465501 -0.188350 -0.333874 0.138317 0.434391 -0.277424 0.156100 0.004279 0.189602 -0.178070 0.265790 -0.211424 0.256697 -0.284035 0.286494 0.258139 -0.026720 0.223925 0.214514 -0.251437 -0.335874 -0.039628 
která 0.006244 -0.417064 0.456779 -0.415668 0.014095 -0.291912 0.178165 -0.428105 0.363135 0.480242 -0.178659 -0.082654 0.003111 -0.118253 -0.112983 0.286792 0.059924 0.233360 0.550791 0.265434 0.150328 0.225149 0.232801 -0.057140 0.150953 -0.330142 -0.069850 0.258387 0.028108 0.036620 -0.140541 0.094858 -0.435573 0.275158 0.173196 0.199013 -0.383982 0.004022 0.188635 -0.035911 0.010654 0.677679 -0.176315 0.079252 -0.191977 0.059326 0.180907 0.199032 -0.114527 -0.664751 -0.104399 0.002911 0.144474 0.066204 -0.187149 0.085413 -0.255751 -0.266157 -0.574106 0.012180 0.021837 0.015859 0.286752 -0.059155 -0.354572 0.005633 0.231314 -0.183828 -0.245048 0.276514 -0.307397 -0.273208 0.187079 0.376731 0.258264 -0.204888 0.100714 0.515247 -0.004131 0.254985 0.125198 0.313230 0.032397 -0.223736 0.445143 0.415809 0.254754 0.186124 0.278063 0.250787 0.238427 -0.018711 -0.203460 -0.175959 0.411918 -0.066165 -0.240237 0.260629 -0.202480 0.074347 
6 0.395163 -0.298167 -0.613113 -0.261674 -0.120836 0.129466 -0.070415 0.043535 -0.257270 -0.321982 0.804799 0.384228 -0.399335 -0.090762 0.381407 0.248043 -0.157388 -0.082987 0.243966 0.232801 -0.220648 0.193630 0.239670 -0.240193 0.065435 0.240161 -0.354654 0.593408 0.245479 0.127364 -0.023422 -0.131941 -0.155685 -0.167394 -0.268334 -0.063219 -0.128838 -0.539885 0.420091 0.003206 -0.310697 0.530045 -0.219997 -0.196218 0.357002 0.036116 -0.184033 0.212624 -0.327533 0.185381 0.138867 0.076836 -0.321114 -0.286382 -0.168654 -0.135649 0.366525 -0.251020 -0.238427 0.429167 -0.002230 0.162535 0.069972 -0.318601 -0.147165 -0.183671 0.133976 -0.513083 0.009102 0.503843 0.031650 -0.181694 -0.129006 -0.000902 -0.011697 -0.134034 -0.121714 0.059101 -0.234267 -0.342846 0.027601 0.403802 0.338679 -0.288685 0.117689 0.341480 -0.100084 0.125720 0.442430 0.125847 0.277642 0.453333 -0.344657 -0.016558 0.020132 0.045148 -0.291571 0.123112 -0.139443 -0.193737 
bude -0.343933 -0.741168 0.154367 -0.246268 0.368671 -0.311200 -0.056272 -0.203603 -0.253721 0.067243 0.223795 0.163429 -0.173123 -0.600686 -0.094428 0.422277 0.098150 0.029790 0.866144 0.358398 0.077653 0.244082 0.795768 0.153482 -0.179635 -0.002405 -0.297836 -0.079742 0.293669 0.005213 -0.369664 -0.423899 -0.296438 -0.145003 0.070906 0.252930 0.372396 -0.009754 0.088448 -0.166766 0.289011 0.598575 0.122079 -0.310655 -0.148413 -0.430721 0.337558 0.033209 -0.291605 -0.026787 -0.103177 -0.094116 0.385706 0.320522 -0.200613 0.006517 -0.301032 0.455476 0.043190 -0.099285 0.191959 -0.301367 -0.478372 -0.378095 0.308035 0.085305 0.035996 -0.154716 0.357790 0.029700 0.480292 -0.018361 -0.027060 -0.174165 0.259710 -0.164315 0.269262 -0.155398 -0.268672 -0.511399 -0.053106 0.051545 0.148329 -0.210535 0.259726 0.674018 0.118926 0.159872 0.147776 -0.124407 0.169900 -0.351641 -0.494750 0.127315 0.248791 0.134644 -0.267224 -0.223955 -0.070017 0.135768 
roku -0.079485 -0.189482 0.183769 0.109374 0.091719 0.037702 -0.439376 0.015870 -0.003057 0.345057 -0.027709 -0.099786 -0.482193 -0.079923 -0.408932 0.193191 -0.074214 -0.155028 0.207612 0.342563 -0.337352 0.537154 0.301814 -0.292285 -0.175422 -0.215316 0.099204 0.671119 0.015719 -0.551089 0.124085 -0.429369 -0.180918 0.455611 0.094457 0.301233 0.041250 0.213038 -0.443911 0.068307 -0.413677 0.120696 -0.039900 -0.055503 -0.088759 0.037763 0.176123 -0.116721 -0.081788 -0.704030 -0.214271 0.486150 -0.115292 -0.088333 -0.414739 -0.311548 -0.112978 -0.234070 -0.365952 -0.013884 0.033779 0.091169 0.477321 -0.674570 0.168846 0.215767 0.160069 0.259049 0.489375 0.421772 0.193821 -0.269299 0.133771 -0.069071 -0.099024 0.045683 -0.219243 0.265910 -0.077603 -0.386208 0.732877 0.111901 -0.181057 -0.679639 0.245733 0.671613 0.350409 0.267497 0.538717 0.142112 -0.049975 0.128136 -0.401140 0.129948 0.054561 -0.004728 -0.565341 0.207584 -0.297916 -0.094956 
pokud -0.314617 -0.407688 0.343184 -0.822094 0.139769 -0.228482 0.013496 -0.360712 -0.239448 0.402919 0.504276 0.173846 0.105183 -0.313907 -0.075645 0.002915 0.240703 0.257619 0.496165 0.349748 0.241553 0.156422 0.864581 0.314025 -0.167252 -0.137149 -0.211115 -0.473014 0.536563 -0.095104 -0.098281 -0.095711 -0.289947 0.045694 -0.209497 0.092643 -0.324718 0.043304 0.403189 -0.377676 -0.081866 0.490521 -0.117825 -0.594948 -0.020928 -0.119112 0.108203 -0.006920 0.182386 -0.392178 -0.192508 -0.024733 -0.034709 0.119760 0.156549 -0.778928 0.260949 -0.295321 0.089640 -0.474705 0.003242 -0.002650 -0.462289 -0.614980 0.280142 -0.150121 0.061920 -0.185854 0.050924 0.026647 0.023353 0.085679 0.199626 -0.488248 0.060192 0.015527 0.095013 -0.060018 -0.024353 0.279625 0.089283 0.242387 0.039656 -0.038772 0.367768 0.413928 0.223546 -0.233523 0.273701 0.121438 -0.137147 -0.148443 -0.095416 -0.511420 0.371043 -0.031908 -0.061055 -0.382314 -0.236510 -0.149020 
byla -0.239865 -0.771495 0.504722 0.280773 -0.037359 -0.342001 -0.011597 0.317327 -0.375069 0.226920 -0.342799 -0.160076 -0.052470 -0.604684 -0.115492 0.341161 -0.129944 -0.018102 0.477204 0.233995 -0.057414 0.316263 0.439881 -0.146541 0.141521 0.310760 -0.349821 0.193037 -0.072944 -0.354902 -0.443076 -0.246984 -0.433125 0.272010 0.310670 0.751888 0.148022 -0.242513 -0.163036 0.005254 -0.039800 0.702306 -0.293920 -0.051764 -0.125443 0.201140 0.341280 0.651338 0.226610 -0.195357 0.022367 -0.158887 0.363730 0.012326 -0.483981 0.095673 -0.111126 0.410098 -0.439059 -0.039501 0.147691 0.268994 0.243608 -0.160635 -0.496140 0.403274 -0.215739 -0.103012 -0.221934 0.671046 -0.052573 -0.035338 0.001090 -0.103496 -0.031102 -0.630597 -0.032493 -0.128256 -0.253633 -0.183404 0.042549 0.306365 0.100203 -0.646597 0.181473 0.279614 0.239194 -0.123026 0.292072 0.074154 0.094136 -0.223081 -0.032408 0.312609 0.152283 -0.117347 -0.913191 0.456881 -0.619627 0.095771 
více -0.365330 -0.438750 0.006115 -0.449622 0.170392 0.136367 0.121969 -0.110788 0.034209 0.275938 0.568627 0.441031 -0.070882 0.142461 -0.162038 0.441597 0.169165 -0.114252 0.194786 -0.389594 -0.748601 0.349073 0.250496 -0.175332 0.016888 -0.255467 0.166044 0.031999 0.221955 0.501562 0.250561 0.027177 -0.030648 -0.203032 0.263609 -0.047827 -0.193437 0.434126 0.265807 -0.347040 -0.385642 0.718356 -0.151812 0.036832 0.358607 -0.338808 -0.030304 0.004654 0.103683 -0.425754 -0.072917 0.000791 0.246240 0.173263 -0.039849 0.379796 0.259889 -0.126682 0.193733 -0.118080 0.102597 0.024952 0.194195 0.069226 -0.145826 0.000251 0.274224 0.166775 0.264101 0.168181 -0.010927 0.020313 -0.220307 -0.322079 0.320946 -0.036439 -0.358408 -0.027683 -0.261423 -0.084878 -0.246408 0.511863 0.387383 -0.322496 0.030889 0.431980 0.338187 -0.160070 0.455233 -0.046939 -0.018702 0.150353 0.303374 -0.132344 -0.067960 0.275091 -0.286617 -0.380750 0.325289 0.213410 
+ -0.291986 -0.096923 -0.683055 0.094339 0.709784 -0.130700 -0.159601 -0.190134 -0.111018 0.209497 0.701909 0.727120 0.228630 -0.326137 -0.114944 0.445730 -0.175820 0.341874 -0.427524 -0.152566 -0.321121 0.278724 0.106494 -0.465600 -0.482406 -0.215400 -0.145021 -0.040860 -0.686257 0.456007 -0.144159 -0.237358 -0.060740 -0.272441 -0.345081 0.390195 0.252694 -0.546770 0.404588 -0.069369 0.056407 0.530751 0.690136 -0.370685 0.196193 -0.092425 -0.130963 0.220213 -0.415069 -0.300030 -0.099734 -0.332755 -0.500766 -0.192862 0.286992 0.164569 0.276345 -0.492887 -0.517283 0.016830 0.036031 -0.399553 -0.305647 -0.101000 -0.043205 -0.169036 0.277100 -0.948349 0.229976 0.391676 -0.038400 0.090656 -0.155261 -0.547661 -0.411688 0.150390 0.302232 0.099190 -0.298654 -0.422875 -0.086534 0.020858 0.259354 -0.034258 0.563095 0.749668 -0.248634 -0.212158 0.270460 0.115536 0.131740 -0.255337 0.108686 0.103031 -0.171711 -0.096290 -0.367463 -0.034202 0.099467 0.022803 
před 0.078317 0.005372 0.337813 0.464020 -0.488799 0.065553 -0.093659 -0.584921 -0.245440 -0.217084 0.431568 0.388542 -0.345017 -0.173570 -0.512447 0.570626 0.205437 0.002955 0.135220 -0.029769 0.070243 0.076410 0.288796 -0.425189 0.546374 0.207175 -0.125417 -0.246235 0.592820 -0.093928 -0.312417 0.090360 -0.346474 0.337185 0.299488 0.149747 0.116706 -0.515656 -0.028593 -0.084451 -0.355729 0.441060 -0.414478 0.179299 0.480478 0.082064 0.072032 0.121192 -0.081281 0.448683 0.257844 0.189228 0.154296 -0.404998 -0.288062 0.339531 0.499305 -0.173086 0.161897 -0.084952 -0.363149 0.275279 0.064733 -0.548211 0.255957 0.379986 0.505226 -0.582997 0.131285 0.211883 -0.193479 0.127005 -0.000054 -0.283016 -0.122599 -0.275489 0.261813 0.512899 -0.627434 0.068059 0.012031 0.274852 0.079096 -0.384872 0.967717 0.377775 0.687450 -0.327749 0.193026 0.191489 -0.267135 -0.099870 -0.044194 0.064699 0.162724 -0.325011 -0.150561 -0.094435 0.192595 -0.102773 
[ 0.139165 -0.225302 -0.082262 0.304136 -0.128586 0.405222 0.377824 0.426051 -0.442160 0.476698 -0.704912 0.258972 -0.004282 -0.513410 0.296200 0.285107 0.255389 -0.264508 0.007787 0.260318 0.040165 0.610637 0.424871 -0.365594 -0.179785 0.475960 0.154026 -0.032795 -0.165338 0.386981 -0.185527 -0.248437 -0.152754 -0.001738 -0.490282 -0.115087 -0.449419 -0.441095 0.134135 -0.002535 -0.016295 0.750991 -0.261232 -0.363735 0.023938 0.345525 0.188546 -0.431315 0.174204 0.109041 -0.485547 0.081070 -0.149153 -0.082064 0.479288 0.185256 0.444560 -0.425350 -0.114242 0.014771 -0.570865 0.012738 0.606021 0.041589 -0.748364 0.718683 0.816539 -0.065585 0.422451 0.291765 0.037176 -0.029217 -0.198784 -0.493047 -1.121072 0.265795 -0.328341 -0.200701 0.036648 -1.059689 -0.060653 -0.293801 0.570945 -0.444496 0.254112 0.322942 -0.150042 0.084237 0.360089 0.555750 0.042631 -0.299662 0.073742 0.306336 -0.481367 -0.159452 -0.139929 0.123612 0.226906 -0.370866 
% 0.197368 -0.641421 0.047285 -0.407819 0.171897 0.311274 -0.332829 0.422105 0.193937 -0.268164 0.900294 0.416844 -0.303852 -0.418444 0.051720 0.439777 0.250714 0.213241 0.188744 0.297158 -0.375518 0.825131 -0.027702 -0.436023 0.220052 -0.153300 0.363842 -0.599622 0.023158 -0.268950 0.749195 -0.132593 -0.099324 0.396750 -0.447706 0.303353 -0.212726 -0.121128 0.368500 -0.397922 -0.585327 0.212018 -0.145442 0.165173 0.456260 -0.356559 -0.435893 0.294626 -0.426702 -0.420682 -0.498707 0.159726 -0.403035 0.644689 0.318429 -0.046492 0.202071 -0.041036 -0.491958 -0.444103 0.314826 0.400640 -0.013779 -0.594125 -0.178387 -0.309461 0.299165 -0.586328 0.259412 0.096560 -0.500706 0.289095 0.056809 0.124198 0.000506 -0.179799 0.077302 0.330422 -0.325443 -0.274156 0.379983 -0.284363 0.514682 -0.683412 0.197079 0.435020 -0.115101 0.001434 0.208612 -0.243359 0.131248 -0.117918 0.247484 0.238628 0.329077 0.658462 -0.033543 -0.109364 -0.344014 -0.012629 
není -0.445441 -0.465771 0.190943 -0.298529 -0.009247 -0.004248 -0.193978 -0.033865 -0.150896 0.282748 0.236178 0.247189 -0.003681 -0.967033 -0.167082 0.197464 0.389934 0.018090 0.517920 0.551625 -0.042728 0.070258 0.414294 0.160224 -0.082202 -0.051471 -0.073317 -0.230603 0.244877 0.111305 -0.155211 0.057886 -0.572094 -0.112933 0.340780 0.012526 0.066769 -0.035526 0.255281 -0.235532 -0.067431 0.869426 0.141909 -0.393091 -0.611184 -0.410094 -0.126364 0.545235 0.046323 0.028603 0.017300 -0.035180 0.165231 0.036749 0.292472 -0.324069 0.126517 0.218092 0.175190 -0.824014 0.167336 -0.550210 0.141805 -0.228216 -0.184492 0.196690 0.119213 -0.114612 0.210718 0.132484 0.020480 -0.160944 -0.189376 -0.229858 0.047166 -0.238568 -0.082307 -0.254669 -0.157266 0.026573 -0.152538 -0.222807 -0.156597 -0.356277 0.209854 0.346156 0.170382 0.012034 0.221560 0.168983 0.418779 0.108767 0.029484 0.540966 0.251550 -0.081170 -0.101360 -0.127385 -0.313896 -0.031129 
8 0.365580 -0.216501 -0.601610 -0.241455 -0.044895 0.110878 -0.046842 0.095369 -0.280027 -0.205872 0.814863 0.374104 -0.240922 -0.223455 0.477991 0.386738 -0.041369 -0.022655 0.372066 0.179864 -0.237137 0.106558 0.123808 -0.158149 -0.016521 0.187782 -0.225130 0.411506 0.186497 0.024701 -0.102481 -0.313936 -0.124368 -0.081362 -0.327688 -0.073305 -0.134741 -0.641194 0.336165 0.113124 -0.355481 0.495700 -0.425846 -0.317811 0.309182 -0.023785 -0.152633 0.008873 -0.511203 0.226729 0.006861 0.267551 -0.127726 -0.225575 -0.004334 0.097835 0.359332 -0.140825 -0.203220 0.365142 0.150363 -0.075146 0.048273 -0.207601 -0.264569 -0.149111 0.060275 -0.523375 -0.076417 0.557742 0.006552 0.008834 -0.210070 0.118813 -0.031103 -0.162758 -0.172604 0.174360 -0.008687 -0.456150 0.061411 0.409408 0.122388 -0.303841 0.036721 0.327298 -0.051151 0.103924 0.450200 -0.100494 0.033426 0.721988 -0.309777 -0.102006 0.140861 0.144391 -0.358328 0.064472 -0.155647 -0.175099 
7 0.463896 -0.302033 -0.588121 -0.323522 -0.139042 0.006094 -0.133276 -0.009406 -0.184902 -0.251527 0.771637 0.439960 -0.356074 -0.206096 0.333075 0.344154 -0.108242 -0.142824 0.268421 0.325016 -0.139751 0.096880 0.140318 -0.264064 -0.057763 0.166886 -0.326890 0.452811 0.364965 0.050877 -0.005964 -0.134620 -0.139945 -0.149727 -0.115883 -0.201709 -0.203230 -0.381791 0.495874 -0.005833 -0.524892 0.517048 -0.347377 -0.364293 0.268283 0.024057 -0.021233 0.035654 -0.404899 0.229570 0.241165 0.106842 -0.087487 -0.078091 0.044045 0.019169 0.343011 -0.225094 -0.172405 0.623953 0.008879 -0.058085 -0.008543 -0.284625 -0.178834 -0.155338 0.141809 -0.611812 -0.042348 0.409141 -0.079174 -0.235855 -0.219524 0.058144 -0.055521 -0.096929 -0.046275 0.235858 -0.279265 -0.461318 0.030636 0.298528 0.303332 -0.444998 0.050267 0.312174 -0.124584 0.085132 0.451991 -0.017683 0.130896 0.502910 -0.312752 -0.030402 0.137906 -0.035644 -0.366529 0.063520 -0.234794 -0.324145 
či -0.064775 -0.455137 0.061053 -0.406842 0.338001 -0.050570 -0.200234 -0.121075 0.125017 0.323993 -0.092465 -0.111403 -0.187853 0.331898 0.127547 -0.346202 0.103943 0.167744 0.180413 0.340670 -0.326552 0.106644 0.289669 0.133944 0.290559 -0.170664 -0.162758 -0.039684 0.226858 -0.182828 0.087489 0.066087 -0.274875 0.005919 -0.019386 -0.250014 -0.127739 -0.021634 0.470956 -0.274327 0.280704 0.667892 0.058178 -0.312526 0.043529 -0.042378 -0.144503 0.407981 0.328140 -0.328763 -0.080997 -0.121202 0.139443 -0.023077 0.165657 -0.263140 0.198588 0.009840 -0.110946 -0.594623 -0.135131 -0.425635 0.092052 0.166210 0.441276 0.582027 0.516718 -0.267921 -0.028743 -0.107408 0.094698 -0.091712 0.054298 -0.400611 0.196707 0.247480 -0.171329 0.140861 -0.450082 -0.335789 -0.279442 0.088326 0.042517 0.002792 0.708157 0.525657 0.250463 -0.137982 0.147466 0.353876 0.101558 -0.208990 -0.201039 -0.342935 0.402541 -0.041600 -0.365383 0.196205 -0.044360 -0.007464 
] 0.101234 -0.177282 -0.044240 0.331583 -0.064001 0.421835 0.458201 0.442735 -0.371714 0.515327 -0.716120 0.285780 0.014492 -0.482669 0.307537 0.314769 0.293228 -0.273479 0.047694 0.280657 -0.011531 0.580972 0.401132 -0.250586 -0.242593 0.346423 0.143572 -0.097114 -0.136852 0.371052 -0.136215 -0.276907 -0.132733 0.024956 -0.533938 -0.090815 -0.410713 -0.389449 0.086676 -0.057457 -0.076174 0.726741 -0.270798 -0.337494 0.033663 0.320862 0.143597 -0.525132 0.181333 0.099546 -0.503069 0.036351 -0.096387 -0.007189 0.452360 0.222068 0.488608 -0.509145 -0.127344 -0.072327 -0.576292 0.011846 0.542218 -0.005958 -0.794749 0.628453 0.847153 -0.169423 0.454825 0.226453 0.086204 -0.005004 -0.172392 -0.499536 -1.115162 0.189381 -0.300588 -0.252795 0.020202 -1.087952 -0.044487 -0.346910 0.566928 -0.471110 0.198160 0.326871 -0.113988 0.021384 0.382058 0.519636 -0.070589 -0.263643 0.068549 0.367755 -0.527490 -0.148874 -0.182027 0.144808 0.188165 -0.371921 
; 0.213702 -0.337395 0.239626 -0.004778 0.396166 0.402690 -0.111281 -0.087887 -0.166372 0.003726 -0.071258 0.215967 -0.034208 -0.403687 0.366140 0.608343 -0.260877 -0.125717 -0.150133 0.103843 0.208335 0.200233 0.722818 -0.078004 -0.252468 0.035505 0.246372 -0.026878 0.235811 0.298622 -0.040032 0.032036 -0.361346 -0.211744 0.045742 0.035649 0.166732 -0.197454 0.321720 -0.399261 0.200703 0.202937 -0.229936 -0.432653 0.050448 0.663912 0.106563 -0.168215 -0.171543 -0.322948 0.221849 -0.182732 0.057799 -0.492563 -0.023914 -0.100050 -0.050119 0.022364 -0.308329 -0.140584 -0.410911 -0.216877 0.347165 -0.156073 -0.290456 0.041546 0.272923 -0.234742 0.163929 0.325536 -0.415636 -0.040423 0.252995 -0.025386 -0.481123 0.454928 -0.013132 -0.227519 -0.140666 -0.408101 0.035933 -0.182512 -0.134093 -0.233786 0.333046 0.267510 -0.164555 -0.081336 0.242408 -0.116635 -0.305577 0.291981 0.112121 0.056374 0.327828 0.122503 -0.146954 -0.009882 0.084191 -0.234927 
být -0.413513 -0.640340 0.510320 -0.274529 -0.293589 -0.007586 0.120164 -0.058874 -0.520903 0.008731 0.111991 0.451319 0.105357 -0.482567 0.091050 0.099342 0.114722 -0.228258 0.561055 0.676705 -0.061884 0.046029 0.767758 0.171001 0.145367 0.004897 0.032552 -0.308009 0.362539 0.215442 -0.057274 -0.119182 -0.093160 0.482847 0.241815 -0.004859 -0.210682 0.046942 -0.430100 -0.043245 0.040414 0.782167 0.132669 -0.594059 0.011139 -0.168993 -0.042202 0.018457 0.568720 0.088759 0.079235 0.210399 0.324710 -0.166547 -0.328822 -0.380249 -0.357522 0.104103 -0.000029 -0.286432 -0.043053 -0.308840 0.001002 0.190284 -0.027819 0.338209 0.090748 -0.206687 0.262140 0.077635 0.050391 -0.592441 0.114194 -0.411588 0.072115 -0.255371 0.077595 -0.340527 -0.492523 -0.202354 0.148212 0.179806 0.093465 -0.142790 0.134514 0.454295 0.217737 0.138070 0.371568 0.094350 0.137311 0.037961 -0.120331 -0.033210 0.167252 0.045762 -0.693879 -0.480154 -0.350696 0.237765 
než -0.391694 -0.291803 0.155998 -0.374724 -0.078189 -0.196362 0.078959 -0.261553 -0.042218 0.062837 0.466763 0.340662 0.064930 -0.404460 0.013324 0.335675 0.321654 -0.021426 0.418340 -0.222340 -0.631686 0.458849 0.540450 -0.536504 -0.115116 -0.117258 -0.066081 0.058573 0.230795 0.261284 -0.205522 -0.240632 0.034496 -0.048252 0.134137 -0.127851 -0.117723 0.392370 0.155056 -0.086606 -0.098006 0.442872 -0.224545 0.085260 0.041601 -0.446679 0.011146 0.122107 0.321745 -0.442980 -0.444712 0.130602 0.063434 0.173398 -0.080422 0.086818 0.195620 -0.087514 0.029006 -0.271858 0.111503 0.102189 0.132182 -0.158427 0.101256 0.197253 0.354775 0.044045 0.035388 -0.057151 -0.024479 -0.248552 -0.148205 -0.317875 0.300286 -0.065759 -0.338234 0.131542 -0.495563 0.010687 -0.186173 0.605668 0.028833 -0.258833 0.290747 0.417385 0.456186 -0.308955 0.748678 0.021318 0.160216 0.188388 0.588950 -0.215918 0.070702 0.186190 -0.283427 -0.423459 -0.092939 0.266997 
kde -0.022683 -0.084071 0.137659 -0.237504 0.346936 0.154783 -0.044705 -0.072427 -0.077720 0.507425 0.298942 -0.069965 -0.039344 -0.397233 -0.246308 -0.255010 0.516668 0.337493 0.502422 0.237759 0.022409 0.325490 0.384280 -0.501293 0.153282 -0.343818 -0.148101 0.267671 0.439718 -0.159172 -0.228366 0.202964 -0.461812 0.198844 -0.331184 0.065190 -0.066062 0.158843 0.103882 0.150495 -0.039504 0.369710 0.185715 -0.258086 0.045045 0.120939 0.406711 -0.084029 0.173423 -0.104522 -0.029175 0.035652 -0.055629 0.040621 -0.142636 -0.152715 -0.166919 -0.232599 -0.005030 0.062965 0.026814 0.191941 0.082245 -0.062371 -0.044571 -0.048570 0.243981 -0.071817 0.182479 0.513466 0.082610 -0.091678 0.189736 0.047045 -0.107258 -0.024215 -0.419207 0.473397 0.029089 0.153612 -0.108049 0.107807 -0.268880 -0.093089 0.432510 0.449691 0.476765 -0.117081 0.303403 0.185513 -0.113115 -0.325780 -0.085093 -0.315934 -0.325667 0.032233 0.051061 -0.029987 -0.477450 -0.115427 
bylo -0.062733 -0.844950 0.597088 0.186862 0.272407 0.017506 -0.191806 0.416241 -0.330817 0.390270 0.031069 -0.107131 -0.037345 -0.854238 0.023331 0.124495 -0.516691 -0.270174 0.401519 0.320045 -0.036607 0.570901 0.445376 -0.348615 -0.138328 -0.011398 -0.314081 -0.055091 0.071382 -0.177833 -0.274587 -0.082376 -0.157684 -0.334679 0.280076 0.285236 0.458254 0.302696 -0.269505 0.218652 -0.304520 0.807764 -0.052433 -0.121911 0.020217 -0.239962 -0.218805 0.010727 -0.194576 -0.008836 -0.079554 0.121938 0.299207 0.013206 -0.288134 0.073017 0.170099 0.268798 0.747629 -0.306964 0.328083 0.245457 -0.033956 0.009797 -0.264662 0.239814 -0.236081 -0.160110 0.277562 0.417481 -0.552401 -0.051113 0.183713 -0.233506 0.149877 -0.324580 -0.203859 -0.310663 -0.455367 -0.559523 0.164954 -0.047756 -0.318321 -0.562487 0.529458 0.202444 0.132480 -0.324328 0.363057 -0.378690 -0.241236 0.046135 -0.052779 -0.014010 0.109278 -0.200612 -0.384809 0.083367 -0.429969 -0.020044 
m 0.094943 -0.603533 -0.324054 -0.410860 0.056105 0.368230 0.355453 -0.274313 -0.163331 -0.242374 -0.291364 0.533781 0.016586 0.156471 0.333516 0.650020 0.231193 0.312173 0.132412 0.318564 -0.407513 0.277870 0.263980 -0.314958 -0.113564 0.220236 0.090183 0.914157 0.033954 -0.283136 -0.066422 0.321277 -0.055863 0.219655 -0.368969 0.544455 0.156883 -0.329678 0.609842 0.027502 -0.107825 0.163939 0.175392 -0.631638 -0.097894 0.243116 -0.110340 0.080459 -0.172676 -0.087009 -0.410041 -0.082339 -0.374422 -0.143359 -0.169795 -0.250746 -0.225666 0.177925 -0.723599 0.130877 -0.429302 -0.152527 -0.436646 0.217118 0.056927 -0.225565 0.581270 -0.749832 0.574317 0.433628 -0.542221 0.208508 0.551893 -0.139282 -0.257730 -0.085888 0.030610 0.154285 0.010265 0.042186 -0.064461 0.172294 -0.182331 -0.029250 0.290325 0.481503 -0.134941 -0.007264 0.235045 0.172618 0.147747 0.704827 0.493278 0.205614 -0.217039 -0.030184 -0.185074 0.399093 -0.306924 -0.228121 
mezi 0.223294 -0.136683 0.273499 0.129084 -0.350829 -0.037582 -0.354525 -0.072642 0.213464 0.225468 0.142565 0.255880 -0.009197 -0.471608 -0.448135 0.183779 0.201849 -0.013769 0.230583 0.454527 -0.066545 0.194392 0.393060 -0.004002 0.192928 -0.134156 -0.334203 0.273212 0.221656 -0.077260 -0.100746 -0.074601 -0.252232 0.050004 -0.026419 0.737947 -0.350183 -0.245299 -0.296980 0.283564 -0.091391 0.657591 -0.376301 -0.492631 0.237435 0.407008 0.128536 0.135786 0.239226 -0.211493 0.382362 -0.074567 0.391621 -0.055097 -0.257646 -0.167202 0.164720 0.108798 -0.048605 0.189185 0.057408 0.215027 -0.221260 0.010260 -0.004512 0.174636 0.290740 -0.059506 0.449171 0.349256 -0.245233 -0.063603 -0.092768 -0.207832 -0.028587 0.394905 -0.417715 0.318178 -0.214529 -0.236393 -0.006602 0.003174 -0.304402 0.262729 0.549399 0.460105 0.459781 -0.023032 0.352454 0.465916 0.212543 0.031318 0.595474 0.269275 0.316417 0.339463 0.133670 0.065618 0.441268 -0.074225 
kategorie 0.362468 -0.131096 -0.450049 -0.111716 0.031933 0.393187 -0.194873 -0.284388 -0.144109 0.329667 -0.025144 -0.374956 -0.111300 -0.080594 0.169915 -0.001399 -0.619456 0.598400 -0.208368 0.144065 -0.785079 0.164424 0.375608 -0.195696 0.445967 0.503879 -0.083338 0.569020 0.187795 -0.191433 -0.003898 -0.368574 -0.332590 0.608690 -0.350100 0.317133 -0.512364 0.207452 0.026315 0.199942 -0.488600 0.776669 -0.685939 -0.183720 0.757693 0.926283 0.366417 0.679926 0.202955 -1.240707 -0.474067 0.676430 -0.202436 -0.518311 -0.573756 -0.470538 -0.386989 -0.453317 0.026661 -0.218985 0.144560 -0.612286 0.389870 0.431398 -0.029495 0.284949 1.102206 0.437339 -0.093698 0.474711 -0.659468 -1.024973 0.276444 -0.566361 -0.921147 0.209601 -0.017817 0.319039 0.760017 -1.174987 -0.091325 -0.555990 0.222029 -0.425915 0.001483 1.016966 0.036112 -0.111706 -0.121064 0.403477 -0.285292 -0.169767 -0.603253 0.384721 0.419923 0.050617 -0.305248 0.056397 -0.095976 0.372676 
let 0.017417 -0.130113 0.506224 -0.105062 0.303120 0.531525 0.072256 -0.637525 0.190985 0.183757 0.423216 -0.217524 -0.468473 0.072548 -0.559094 0.391320 0.240439 -0.236440 0.072308 0.168838 -0.440421 0.194031 0.423667 -0.481752 -0.085874 0.228182 -0.025535 0.399529 0.545537 -0.139848 0.145708 -0.398254 0.206704 -0.039727 -0.303096 0.253049 0.207529 0.122875 -0.498766 -0.495780 -0.261670 0.514649 -0.318499 -0.123830 0.031159 0.031927 0.016458 -0.119672 -0.247550 -0.472296 -0.301974 0.103013 -0.117923 -0.043747 -0.148952 -0.414574 -0.174385 -0.089504 -0.264894 -0.096841 0.237466 0.368055 -0.058320 -0.215628 0.049704 0.320904 0.204602 -0.560838 0.069438 0.181361 0.141059 -0.048519 -0.167112 -0.099841 0.067956 -0.194900 -0.077895 0.008718 -0.480417 -0.146422 0.176007 0.416263 0.084425 -0.811189 0.724446 0.274132 0.116882 -0.274122 0.324607 -0.171567 -0.121258 0.362045 0.038791 0.229854 0.152422 -0.154473 -0.263692 -0.377988 -0.174468 -0.347050 
může -0.432638 -0.960925 0.289676 -0.692560 0.176275 0.272492 0.055546 -0.202401 -0.008372 -0.206681 -0.196484 -0.041318 0.029022 -0.774999 0.274010 0.354617 0.366656 0.000918 0.759160 0.559249 -0.001372 0.181169 0.859642 0.165544 0.083014 -0.442247 0.074383 -0.584614 0.231525 -0.095388 -0.172502 0.050496 -0.385504 0.267638 0.222006 -0.131142 -0.176972 0.119186 0.295845 -0.259287 0.288161 0.648925 0.366042 -0.020238 0.075623 -0.454897 0.148569 -0.068357 -0.026625 -0.333402 0.193270 0.013261 0.378387 0.232976 0.106385 -0.061098 -0.342055 -0.038377 0.153701 0.001131 0.109243 -0.210614 0.130953 0.177839 0.403135 0.331834 0.384201 -0.208847 0.179316 -0.079058 0.067945 -0.361756 0.173170 -0.359037 0.168883 -0.167124 0.241469 -0.518349 -0.408792 -0.332591 0.217459 0.348551 -0.017478 -0.155649 0.581568 0.460988 0.167582 0.168590 0.306358 0.026893 0.455512 -0.180136 -0.347692 0.178549 0.180660 0.341733 -0.446075 -0.169218 0.032040 0.006603 
první -0.192769 -0.108312 0.262606 0.322427 0.123812 0.011396 -0.561765 -0.331306 -0.053211 0.084122 0.261665 0.271478 -0.004432 -0.165232 -0.515230 -0.112401 0.039230 0.093468 0.054423 0.503692 -0.104350 0.291951 0.187594 0.085871 -0.217213 -0.135751 0.091002 0.589117 0.072189 -0.110953 -0.353583 -0.112474 -0.474013 0.018609 -0.224672 0.224139 -0.267424 -0.510624 -0.187218 0.099707 0.037223 0.586922 -0.365851 -0.093625 -0.426365 -0.052594 0.092718 -0.053544 -0.120973 -0.365501 -0.144288 0.278521 -0.365671 0.282416 -0.364115 0.020693 0.204573 -0.306164 0.081383 0.068305 -0.260714 0.000796 0.395227 -0.148262 -0.071390 0.242050 0.586148 0.111706 0.008650 0.329433 0.022706 -0.329818 0.098075 -0.245365 0.030149 -0.052301 -0.030800 0.076231 -0.079170 0.093060 0.483102 0.521561 0.278587 -0.509067 0.182480 0.470092 0.234383 0.135153 0.530735 0.049669 -0.011170 -0.189879 -0.151576 -0.167148 0.126369 -0.184529 -0.383020 0.015286 -0.109574 0.177839 
jejich -0.116854 -0.344485 0.504480 -0.330002 -0.071549 -0.061775 -0.169209 -0.219037 -0.312913 0.413611 -0.055914 0.276783 -0.151024 -0.078469 -0.118523 -0.025010 0.053958 0.082132 0.262445 -0.144767 0.011791 0.681653 0.529529 -0.264769 0.230281 -0.187936 0.028264 0.068235 0.207299 0.130401 -0.441289 0.159327 -0.189198 0.024866 0.088221 0.291550 -0.280601 0.003757 0.120295 -0.396093 0.061329 0.627357 -0.299909 -0.382680 0.008537 0.050855 -0.117164 -0.257024 0.091671 0.060222 -0.193256 -0.167386 0.066834 -0.256112 0.060627 -0.644953 -0.164653 0.091930 -0.049484 -0.444384 0.021080 0.022932 0.328601 0.025403 -0.028976 0.178742 0.119278 -0.140138 0.124556 0.351315 -0.010402 -0.016511 -0.200626 -0.109839 0.347210 0.032613 -0.287351 0.113114 -0.156041 -0.346602 0.137091 0.048543 -0.018022 0.095292 0.336777 0.159129 0.100666 0.110297 0.230517 0.019160 0.021314 -0.269565 -0.083804 -0.113432 0.529106 0.216277 0.135064 0.087923 -0.191593 -0.077873 
pak -0.237067 -0.177479 0.326011 -0.034237 -0.030350 -0.082195 -0.293404 0.055153 -0.012862 0.398953 0.089331 0.132903 -0.105201 -0.372976 -0.127469 -0.089740 0.368340 0.132889 0.760279 0.033592 0.028712 0.265601 0.467035 -0.120398 -0.159023 -0.099450 -0.234009 0.107520 0.283535 0.000089 -0.215387 0.201331 -0.189523 0.185576 -0.242288 0.403430 0.039039 0.082345 -0.007492 0.069737 0.085471 0.140237 0.076349 -0.342825 0.168185 0.078718 0.021672 -0.152714 -0.101293 -0.325170 -0.256164 -0.280239 0.170342 -0.087512 -0.357266 -0.344166 0.237324 -0.344931 0.017958 -0.098000 0.118996 0.188384 0.216479 -0.474735 0.085416 -0.000031 0.170122 -0.109877 0.050196 0.199997 -0.041623 -0.210925 0.184463 -0.009283 0.184458 0.055019 -0.080234 0.117513 0.036760 0.021144 -0.187294 0.291784 -0.014566 0.027402 0.455922 0.715120 0.077231 -0.062366 0.300495 -0.042356 0.063512 -0.167541 -0.111787 -0.120775 0.153570 -0.127578 0.070140 0.238912 -0.367836 -0.019935 
své -0.305350 -0.044225 0.459791 0.184521 0.070647 0.440228 -0.245961 -0.481484 -0.035671 0.592385 0.398493 0.163388 -0.190029 -0.093058 -0.055254 -0.319417 -0.369949 -0.278774 0.505091 0.388743 -0.068095 0.696020 0.256122 -0.004927 0.120786 -0.246799 0.139807 0.131062 0.125122 0.244804 -0.142818 0.523027 -0.112182 -0.108000 -0.036262 0.214322 -0.237241 0.049475 0.233967 0.133556 0.238832 0.402346 -0.205927 -0.297609 0.275689 -0.323438 0.417382 -0.180552 -0.285394 -0.031962 -0.004761 0.190825 0.070637 0.118650 -0.060702 -0.308180 -0.166126 -0.213601 -0.159168 -0.325016 0.024031 -0.043057 0.443152 0.336646 -0.079147 0.279399 0.249094 0.066509 -0.141522 0.096113 -0.459153 -0.137230 -0.084354 0.172024 0.210515 -0.038385 -0.410137 0.186307 -0.006440 0.091601 -0.060310 0.845598 0.297716 -0.161376 0.610372 0.758345 0.307717 0.487982 0.471755 0.331506 -0.131170 0.138294 -0.135319 -0.121098 0.427345 -0.138196 0.254397 0.200812 -0.198636 -0.002688 
všechny 0.087727 0.228805 0.079655 0.023202 -0.119171 0.202397 -0.126142 -0.421556 -0.242295 0.384018 0.393608 0.643246 -0.430139 -0.013947 -0.056674 0.299550 -0.063249 -0.076077 0.204598 0.258927 -0.259372 0.199668 0.424715 0.080945 -0.050103 0.232402 0.012777 -0.192273 -0.325703 0.087662 -0.109284 0.626426 0.489512 0.389190 -0.151551 0.305351 -0.023338 -0.059416 0.276542 -0.037182 0.130252 0.374649 -0.168517 -0.684160 -0.085742 -0.393075 0.369941 0.006299 0.136158 -0.162080 0.226814 -0.170114 -0.143958 -0.079781 -0.475871 0.101907 -0.081443 -0.490273 0.441423 -0.433976 0.304082 -0.365854 0.389460 0.750208 -0.181151 -0.366031 0.504839 0.248670 -0.245351 0.351501 -0.507641 0.097790 -0.218947 0.126628 -0.429774 -0.397654 -0.080006 0.209088 -0.208227 0.248964 0.089898 0.112080 0.535540 -0.121478 0.121116 1.128472 -0.012130 0.005458 0.236688 -0.396034 -0.231141 0.097646 -0.110904 0.051469 1.025422 0.120821 -0.024257 -0.074674 -0.066308 0.064428 
20 0.122803 -0.569978 -0.040621 -0.046994 -0.141543 0.508718 0.169587 0.094090 0.209466 -0.211918 0.767594 0.236606 -0.405082 -0.060035 0.026200 0.265479 0.217610 0.079146 0.529458 0.196507 -0.596945 0.172322 0.213819 0.127473 -0.005450 0.225209 -0.379934 0.302746 0.349288 0.058930 0.315798 -0.495969 0.111376 -0.239182 -0.160377 0.107752 -0.074695 -0.286449 -0.156956 -0.286618 -0.569993 0.697182 -0.142905 -0.021874 0.119720 0.195004 -0.175084 0.133204 -0.337817 -0.024783 -0.161563 0.043782 -0.321072 0.170658 -0.052598 -0.060693 -0.022018 0.088789 -0.248597 0.249314 0.081084 -0.096770 0.206903 -0.126916 -0.449732 0.120534 0.161388 -0.542434 0.249170 0.390627 -0.195295 0.148113 -0.056411 -0.152315 -0.257229 -0.014307 -0.221890 0.042489 -0.057516 -0.500923 0.230648 0.593055 0.216085 -0.242872 -0.030546 0.449876 -0.233798 0.018029 0.169621 -0.305123 -0.186116 0.127845 -0.202479 0.172785 -0.295685 0.017095 -0.024136 -0.172171 -0.122533 -0.018422 
zde -0.109908 -0.470302 -0.176542 -0.431208 0.172213 -0.089902 -0.091164 -0.056423 0.073872 0.716646 0.184073 0.276261 0.130153 0.032971 -0.596297 0.014362 0.464879 0.075041 0.403532 0.067816 -0.051057 0.504271 0.208577 0.044714 -0.069232 -0.532797 0.107363 0.301371 0.100376 -0.074938 0.353587 0.106303 -0.433600 0.175362 -0.302030 0.505203 0.109931 0.249135 -0.120081 0.108152 -0.872974 0.100553 0.090773 -0.614987 0.038188 -0.064139 0.264742 -0.326639 -0.133522 -0.146542 -0.162466 0.060055 0.421451 -0.107824 -0.083336 -0.090703 0.300137 -0.418065 0.137555 -0.223664 -0.114098 0.222710 0.464299 0.038980 0.141764 -0.072197 -0.029949 0.127784 0.179850 0.314849 0.010986 -0.132215 -0.092734 -0.291260 -0.234323 -0.302106 -0.520467 0.051036 -0.109165 -0.054089 0.119371 0.028977 0.110460 -0.422697 0.330105 0.678506 0.073768 -0.225014 0.203208 0.194704 -0.200468 -0.235011 0.124963 0.018755 -0.159365 0.070124 -0.110335 0.103000 -0.163484 0.018425 
ke -0.054555 -0.346195 0.141850 -0.409523 0.171699 0.369631 -0.056642 0.162428 -0.234374 0.245470 -0.224167 0.468963 -0.091956 -0.371119 -0.356661 0.277500 0.176813 0.421077 -0.058024 0.444655 0.298342 0.333072 -0.028617 -0.328420 -0.135413 -0.492292 0.348096 0.212871 0.116093 -0.053215 0.374370 -0.242228 -0.114346 0.383484 0.203799 0.067851 0.011738 0.196531 0.012336 -0.160254 0.148236 0.651539 -0.180045 -0.064189 0.317824 0.588050 -0.211656 -0.435757 -0.026416 -0.073758 -0.133360 0.256092 0.715667 -0.282272 0.287860 -0.496964 -0.042775 -0.294968 0.203126 -0.124668 0.244495 0.371202 0.354586 0.003776 0.547589 0.241419 0.284275 -0.398726 -0.111341 0.236032 -0.492103 -0.410912 -0.071762 0.046004 -0.034621 -0.571400 -0.214793 -0.188125 -0.037248 -0.299569 0.053812 0.189034 0.504263 0.107500 0.308660 0.767171 0.426689 0.742057 0.054080 0.301706 -0.107826 -0.027725 -0.074980 -0.129852 -0.175882 0.013672 0.030696 0.079042 -0.068452 0.037086 
12 0.357148 -0.294508 -0.341252 -0.131013 -0.150065 0.369350 0.093873 0.096741 -0.155267 -0.211174 0.873221 0.198992 -0.334309 -0.185859 0.133381 0.052991 -0.103764 0.068707 0.480737 0.143021 -0.458583 0.129312 0.238576 0.025084 0.017843 0.038975 -0.396433 0.409809 0.256671 0.168472 0.021897 -0.392166 0.024714 -0.209400 -0.274509 -0.151997 -0.203618 -0.398082 -0.012049 -0.172250 -0.554703 0.860002 -0.254414 -0.176010 0.091503 0.127793 -0.137944 0.059693 -0.386916 0.031920 -0.009591 0.077964 -0.169360 -0.025483 -0.045851 0.008027 0.239506 -0.197783 -0.271080 0.398583 -0.121702 -0.172098 0.143618 -0.163593 -0.495354 0.077771 0.102153 -0.431301 0.194536 0.350993 -0.189295 0.020364 -0.074050 -0.044285 -0.315662 -0.119320 -0.074077 -0.050994 -0.045054 -0.635137 0.047290 0.514213 0.185975 -0.220337 -0.053961 0.356373 -0.193044 0.135587 0.336792 -0.091635 -0.156607 0.346434 -0.394258 0.253046 -0.156866 0.023658 -0.129121 0.013765 -0.143343 0.010253 
nad -0.172599 0.465347 -0.107911 -0.126938 0.280982 0.072212 0.322711 -0.310959 -0.138039 0.044012 0.515729 0.649616 -0.460346 -0.011061 -0.462528 0.484054 -0.009294 0.641640 0.383411 0.241483 0.212755 -0.102385 0.933060 -0.282390 0.322431 0.444381 0.047588 0.053555 -0.330853 -0.441428 0.145249 0.083113 0.230332 0.191931 -0.002283 0.476815 0.347169 -0.012235 -0.081042 0.120379 -0.058893 1.081637 -0.156530 -0.244446 0.284615 0.365585 -0.147167 -0.376526 0.477663 0.075676 0.324930 -0.271413 0.393019 0.417550 -0.142018 -0.272768 0.047972 -0.074002 -0.000020 0.139007 -0.143306 -0.145744 -0.696639 -0.149229 0.152785 0.511912 0.095984 0.080997 0.531784 0.188675 -0.459476 -0.323348 0.292605 0.153596 -0.531317 0.168251 -0.416204 0.166510 -0.190962 -0.073591 0.058509 0.259154 0.383524 -0.188028 0.378719 0.269339 -0.491730 -0.048522 0.163798 0.121400 -0.078031 0.036049 0.531341 0.040360 0.447293 -0.005346 -0.102393 0.146650 -0.245894 -0.062445 
již -0.172246 -0.091952 0.235521 -0.156339 -0.134098 0.113673 -0.231908 -0.393826 -0.110813 0.399746 0.268444 0.055421 -0.142504 -0.138741 -0.408611 -0.008816 0.355249 -0.012634 0.343372 0.180355 -0.274541 0.577600 0.194286 0.083272 -0.236274 -0.000692 -0.173666 0.268703 0.080856 -0.277016 0.204139 0.003650 -0.072966 -0.129908 -0.116834 0.073757 0.119986 -0.048664 -0.164761 0.045198 -0.344342 0.542910 -0.316726 -0.151367 -0.209657 -0.338405 0.119165 0.266886 -0.038482 -0.380346 -0.005261 -0.060995 0.293355 0.098495 -0.283206 -0.056795 -0.119494 -0.210357 -0.001374 -0.362821 0.110473 -0.075333 0.349059 -0.254856 0.064807 0.161191 0.359711 0.019594 0.063834 0.077232 0.124701 -0.330668 0.161911 0.000406 0.068581 -0.079891 -0.399513 0.096285 -0.442975 0.340505 0.240533 0.227972 0.199079 -0.557910 0.378965 0.376869 0.407934 0.128948 0.446086 -0.197671 -0.205645 0.119895 0.061252 -0.047507 0.262512 -0.205023 -0.324649 -0.049695 0.113535 -0.231192 
pouze -0.219254 -0.411785 0.276134 -0.122977 0.224981 0.366820 -0.135800 -0.014026 0.018735 0.578525 0.536499 0.388282 0.374063 -0.129468 0.005585 0.070684 0.292292 0.306188 0.495244 0.118398 -0.150484 0.312576 0.661555 0.410165 -0.115733 -0.049748 0.062071 0.029672 0.047496 -0.286667 0.082899 0.017851 -0.234827 -0.012154 -0.282825 0.241149 -0.572806 0.039175 -0.070699 -0.528491 -0.042510 0.368481 0.015691 -0.408148 -0.223336 -0.061529 -0.023671 -0.248547 -0.294021 -0.018018 -0.451011 0.070783 0.215422 -0.325232 -0.136743 -0.583670 0.118026 -0.218501 0.024397 -0.588423 0.037011 -0.309775 0.169156 0.102186 0.243421 -0.225072 0.230901 -0.200377 -0.179399 0.538072 0.137128 -0.252963 0.235243 0.241225 -0.015412 -0.246356 -0.156769 -0.071357 -0.252311 0.320623 0.004805 -0.184740 -0.051969 -0.097750 0.206071 0.248166 -0.019446 -0.304295 0.196237 0.061514 0.278937 0.313046 -0.167571 0.170040 0.283296 0.371283 -0.579235 -0.130987 -0.080727 -0.096111 
cena -0.001436 -0.482090 0.304726 0.031634 0.247465 0.112483 0.101794 0.763910 -0.172445 0.581794 0.394811 0.379276 0.370249 -0.656064 0.163184 0.915847 0.613117 0.537912 0.038002 -0.204191 -0.507273 0.255611 0.353726 -0.587029 0.080109 -0.144370 0.109214 0.605280 0.054425 -0.028513 -0.009252 -0.594196 0.095720 0.410204 -0.457662 0.449714 -0.300707 -0.403952 0.949409 -0.477428 -0.465803 0.435454 0.288739 0.386889 0.451653 -0.419791 -0.104762 0.717930 0.014344 -0.347995 0.028131 -0.275249 -0.213486 -0.477497 -0.438238 -0.339538 -0.419164 -0.368685 -0.396279 -0.132673 0.489760 -0.783713 -0.410567 -0.008745 -0.188568 -0.158410 -0.125371 -0.034119 0.853088 0.127156 -0.079395 0.010622 0.200375 0.246721 -0.179897 -0.084370 -0.022375 0.190046 0.018797 -0.261237 -0.407284 0.005927 0.834552 -0.515884 -0.017536 -0.514943 -0.021704 0.337951 0.713392 -0.363517 -0.537809 -0.390637 0.350522 0.580290 0.393431 0.304611 -0.124626 0.179382 -0.168241 -0.075924 
ještě -0.423991 -0.007256 0.129638 -0.345548 -0.128460 -0.296130 -0.010735 -0.291664 -0.032973 0.334940 0.135599 0.197457 -0.387078 -0.496861 -0.374002 0.001318 0.599433 -0.067165 0.303877 -0.086291 -0.181367 0.407534 0.252497 -0.043516 -0.033616 -0.135606 -0.074773 0.002946 0.348605 0.033556 -0.082064 -0.080031 -0.077732 -0.172119 0.132428 0.012389 -0.010747 0.067154 -0.012562 0.010151 0.057718 0.518227 -0.297862 -0.149004 0.137885 -0.165447 0.181914 0.060178 0.124788 -0.138865 -0.246030 -0.276817 0.145814 0.069618 -0.501628 -0.029805 0.242939 -0.122151 0.153134 -0.273325 -0.209507 0.046916 0.078363 -0.252329 -0.054906 0.145068 0.180826 -0.041929 0.020538 0.085606 -0.261634 -0.212062 0.134305 -0.199690 0.113657 -0.002391 0.050325 0.113697 -0.249016 0.197641 -0.076753 0.514772 0.100444 -0.301019 0.194089 0.684062 0.393302 -0.306050 0.721699 -0.045185 -0.132285 -0.064860 0.098317 -0.074722 0.112215 -0.320424 -0.256814 -0.177123 -0.117260 0.059170 
15 0.188504 -0.352106 -0.269023 -0.066887 -0.246129 0.522004 0.056754 0.059934 0.052059 -0.278813 0.841110 0.221897 -0.371748 -0.025102 0.039398 0.181186 -0.011285 0.166236 0.568578 0.156847 -0.447749 0.126272 0.290450 0.080545 0.008793 0.132267 -0.514405 0.399529 0.273573 0.055803 0.151919 -0.436841 0.047194 -0.137693 -0.140354 -0.089601 -0.156078 -0.339301 -0.034457 -0.260540 -0.598829 0.742654 -0.228032 -0.130532 0.108375 0.252880 -0.099313 0.070823 -0.446899 -0.045925 -0.105324 0.179953 -0.296430 0.120809 0.010799 -0.004452 0.138729 -0.160778 -0.175854 0.303843 0.026892 -0.110120 0.130636 -0.138727 -0.355029 0.077036 0.164904 -0.634373 0.181820 0.315859 -0.228897 -0.006837 -0.086351 -0.035163 -0.264714 -0.151742 -0.052920 -0.049220 -0.048035 -0.499611 0.075583 0.539403 0.159607 -0.154323 -0.092645 0.392578 -0.108942 0.036138 0.293696 -0.254770 -0.207526 0.276379 -0.269897 0.334738 -0.083678 0.141104 -0.128905 0.030680 -0.266046 -0.048048 
9 0.442650 -0.336014 -0.586468 -0.125000 -0.098469 0.136919 -0.009900 -0.020922 -0.202872 -0.273799 0.864310 0.404821 -0.331240 -0.215884 0.263699 0.245062 -0.146552 -0.017448 0.372660 0.225128 -0.225741 0.198976 0.163697 -0.142300 0.072452 0.069647 -0.383522 0.414842 0.333632 0.102411 -0.049507 -0.214911 -0.124856 -0.186884 -0.363406 -0.092612 -0.114016 -0.458448 0.368327 0.042718 -0.393374 0.611971 -0.224113 -0.211065 0.317910 -0.003675 -0.060897 0.137298 -0.431609 0.118315 0.093317 0.244619 -0.192305 -0.160161 0.067181 0.061348 0.256493 -0.137563 -0.259348 0.454746 -0.047290 -0.086520 0.187517 -0.206701 -0.302071 -0.081126 0.038592 -0.523909 0.103912 0.612731 -0.012963 -0.097934 -0.067414 0.074610 -0.104944 -0.081476 -0.175957 0.091945 -0.135234 -0.569713 0.112511 0.471665 0.214888 -0.331814 -0.101285 0.302224 -0.153220 0.155328 0.240566 -0.021444 -0.099183 0.448702 -0.138403 0.148041 0.060373 -0.088787 -0.284450 0.114139 -0.202900 -0.152781 
české -0.501517 -0.148232 0.436977 -0.024925 0.272175 0.186386 -0.700545 -0.298771 -0.141147 0.363697 0.068453 0.439928 -0.295799 -0.261050 -0.039365 0.270669 -0.253043 0.341940 -0.061381 0.433819 -0.193373 0.428566 0.442559 -0.461681 0.563763 0.338047 0.278952 0.259372 -0.138395 0.211643 -0.033261 -0.090859 -0.087447 -0.005879 -0.177658 -0.473368 -0.144922 0.243567 -0.128809 -0.144682 -0.290395 0.938264 0.008735 -0.062762 0.153267 0.283662 0.000113 -0.413665 -0.212814 -0.525452 0.050326 0.584270 0.276120 -0.198627 0.060199 0.270674 0.152866 0.278818 -0.028788 -0.100844 0.258445 -0.170756 0.046862 0.341004 0.181873 0.359956 0.543398 -0.368330 0.582240 0.322977 0.412581 -0.029339 0.000912 -0.280427 -0.173388 -0.056345 -0.087775 0.427038 0.486799 0.200350 0.288007 0.382209 -0.032755 -0.498343 -0.301629 0.331062 0.034624 0.094292 0.360233 0.566590 -0.208054 0.111272 0.309007 0.155358 0.451205 -0.508569 0.038750 0.099092 0.257909 0.306661 
tento -0.536355 -0.412453 0.303021 -0.353811 -0.331945 0.220878 -0.159173 -0.316772 -0.018654 0.694713 0.613676 0.135256 0.626551 -0.239334 -0.112337 0.420171 0.587624 0.139476 0.015020 0.366701 0.026439 0.051696 0.039076 -0.127538 -0.246679 0.100935 -0.088965 0.075709 0.410446 -0.275299 -0.189516 -0.056603 -0.705150 -0.091655 -0.211038 -0.356266 -0.352392 -0.043545 0.011599 -0.163001 -0.175964 0.252356 -0.256049 -0.473061 0.505305 -0.214794 0.079791 -0.133821 -0.166409 0.063940 -0.106800 0.032595 0.317270 -0.120458 -0.174907 -0.261988 -0.323043 -0.275943 0.433877 -0.445283 -0.353981 -0.436043 0.332226 -0.314155 0.124497 0.118136 0.136133 -0.031767 0.236591 0.234010 0.112992 0.020961 0.177209 0.088536 -0.041928 -0.221766 0.039383 0.310535 -0.108130 0.047035 0.444633 0.457002 -0.244413 0.133112 0.003536 0.749869 -0.071713 0.358328 0.408856 -0.317961 0.108029 -0.214235 -0.239446 -0.012550 0.168300 0.137634 -0.092511 0.078656 0.371444 0.184246 
11 0.421820 -0.281565 -0.350861 -0.052587 -0.243859 0.127332 0.021474 -0.074126 -0.190481 -0.102755 0.775457 0.351824 -0.292737 -0.233495 0.036994 0.095573 -0.162845 0.031769 0.419581 0.196041 -0.349717 0.173023 0.193213 -0.027105 0.046943 0.007839 -0.386844 0.217448 0.213801 0.033155 -0.051979 -0.385930 0.012665 -0.222417 -0.319172 -0.099288 -0.251494 -0.371974 0.020639 -0.080729 -0.616995 0.740498 -0.282121 -0.210564 0.033102 0.148543 -0.078749 0.127766 -0.252351 0.196145 -0.040246 0.148730 -0.290138 0.002803 -0.039234 0.171084 0.261462 -0.211709 -0.286438 0.431954 -0.052947 -0.169310 0.073890 -0.199998 -0.406208 0.117277 0.149039 -0.511621 0.291599 0.439978 -0.165812 -0.001955 -0.083191 -0.011592 -0.388459 -0.185207 -0.023771 -0.066915 0.011981 -0.690188 0.095216 0.519524 0.175795 -0.273843 -0.246861 0.458645 -0.160584 0.099019 0.310787 -0.092220 -0.198425 0.281672 -0.363371 0.342043 -0.144702 -0.001892 -0.208834 0.124535 -0.082946 -0.091326 
30 0.098846 -0.407595 -0.125016 -0.155622 -0.275071 0.402731 0.112202 0.270975 0.184982 -0.277175 0.924963 0.267889 -0.352849 -0.106498 -0.083274 0.319980 0.116324 0.085319 0.600711 -0.027712 -0.460771 0.213695 0.193314 0.042757 -0.123152 0.260809 -0.548762 0.458906 0.168843 0.095488 0.145877 -0.464947 0.082348 -0.225353 -0.193919 -0.039521 -0.185927 -0.246351 0.110444 -0.304808 -0.651573 0.688460 -0.178213 -0.078950 0.234040 0.304173 -0.249947 0.006553 -0.489592 -0.115064 0.001948 0.213417 -0.204656 0.088710 0.086757 0.051920 0.008715 -0.058579 -0.267409 0.227639 -0.024669 -0.140897 0.019199 -0.093883 -0.227239 0.035915 0.115058 -0.615384 0.138754 0.275538 -0.288302 0.116358 -0.005534 -0.154436 -0.083839 -0.006330 -0.140624 0.181643 -0.025507 -0.409340 0.043718 0.514717 0.188477 -0.180550 -0.074396 0.473327 -0.205629 -0.080851 0.286074 -0.163352 -0.313916 0.238029 -0.281273 0.285927 -0.031257 0.210390 -0.202972 -0.207227 -0.476897 -0.019317 
pod 0.048320 -0.036815 -0.280833 0.033814 0.451951 -0.232058 0.239695 -0.472073 -0.081069 0.451436 0.064830 -0.176659 -0.115703 -0.204002 -0.284266 -0.153624 0.249707 0.298459 0.464461 0.586665 0.000270 0.370514 0.682861 -0.340636 0.100563 0.273947 -0.206600 0.351984 -0.016226 0.134010 0.264468 -0.017386 -0.173991 0.461013 0.299813 0.067841 -0.017979 -0.097777 0.047057 -0.012717 -0.128969 0.347867 0.307119 -0.014491 0.109293 0.093076 -0.341939 -0.145971 0.102631 -0.123616 0.180715 -0.055794 0.420126 0.024063 -0.300879 -0.033181 0.306564 -0.088448 0.081603 -0.104320 -0.274570 -0.131335 -0.073844 -0.355690 0.005189 0.169121 0.028495 -0.467929 0.434682 0.156073 -0.124101 -0.121931 -0.078496 0.371864 -0.411311 0.362230 -0.965558 0.329335 -0.135299 0.303990 0.066141 0.024509 0.414249 -0.243874 0.559512 0.372307 -0.012572 0.143912 0.025407 -0.336607 0.003869 -0.010553 -0.029816 -0.115823 0.341207 -0.429966 -0.168766 0.288014 -0.246831 -0.023900 
služby -0.312643 -0.153588 -0.297825 0.138320 0.567638 -0.033041 -0.382005 -0.130048 -0.389158 -0.020856 0.270793 1.034984 -0.202642 -0.021825 -0.111191 0.468656 -0.017664 0.322099 0.059981 0.375528 -0.641057 -0.041377 -0.132838 -0.240808 0.053680 -0.509409 -0.177489 0.091074 -0.082344 0.308678 0.292690 -0.053609 0.275452 -0.286819 0.240074 0.426640 -0.566046 -0.047362 0.384464 -0.060591 0.339835 0.033888 -0.105315 -0.668388 -0.536826 0.095858 0.394077 -0.163134 -0.243742 -0.790279 0.270537 0.203706 0.538691 -0.321099 0.524187 -0.132951 0.567669 -0.737553 -0.605960 -0.538089 0.383084 0.049086 -0.462518 0.377834 -0.189825 0.498550 -0.191774 -0.753569 0.285373 0.377013 0.014439 -0.386257 0.541799 0.261588 -0.059242 -0.041840 -0.520724 0.175626 0.490279 -0.235456 0.810633 0.231661 -0.174108 -0.306203 0.480927 0.264777 -0.106704 -0.514371 0.342941 -0.009141 -0.107020 -0.290366 -0.779778 0.424981 0.527450 0.208757 0.458134 -0.184253 -0.524738 0.122964 
